{"Conv_142/WithoutBiases/fq_weights_1": {"low_level": [-0.27087359679372686, -0.18136195743337588, -0.19825993478298187, -0.22975090146064758, -0.17378602921962738, -0.20014448463916779, -0.1739572598820641, -0.28834882378578186, -0.2112318454462974, -0.15891602417317832, -0.22710077781376875, -0.20007264614105225, -0.1809110341181282, -0.18634546058836268, -0.14936800301074982, -0.15412040054798126, -0.22354532778263092, -0.18139466643333435, -0.2134292326694311, -0.21737180650234222, -0.21208682656288147, -0.29876700043678284, -0.1951848864555359, -0.18187737464904785, -0.18370481471081715, -0.1913064569234848, -0.17319841044289724, -0.17497819662094116, -0.19504010746645373, -0.2531997859477997, -0.17631149291992188, -0.21820999681949615, -0.1771082580089569, -0.20433716238899663, -0.1774227533202905, -0.1734894961118698, -0.19258226854045218, -0.1723488342355598, -0.2046665057193401, -0.1611596643924713, -0.20047601631709505, -0.19265879690647125, -0.22135692834854126, -0.16215604543685913, -0.18867615949023855, -0.1949768215417862, -0.18181026134735498, -0.19022755324840546, -0.24179697036743164, -0.21926882202332876, -0.2432471364736557, -0.23848527244159154, -0.262664370238781, -0.18371932208538055, -0.19850438106350785, -0.26112815737724304, -0.22573944926261902, -0.16497880220413208, -0.16170410811901093, -0.18256337423713842, -0.17519676685333252, -0.17675586333197932, -0.16001556712881962, -0.19337165763136, -0.15168288350105286, -0.19568629562854767, -0.2268492082754771, -0.18086117642446303, -0.30907854437828064, -0.21209830045700073, -0.2254932682429041, -0.19378051161766052, -0.18963537812232972, -0.19291813485324383, -0.1890365332365036, -0.1838960589432135, -0.2200237512588501, -0.18967850506305695, -0.2668934289527976, -0.19306986452006608, -0.18832388228696326, -0.1840044781565666, -0.16529775891256962, -0.18856280333092135, -0.19526349008083344, -0.222774988220584, -0.13346437078255874, -0.22695708274841309, -0.2175249180128408, -0.21608571708202362, -0.2502720057964325, -0.20919917523860931, -0.17111042141914368, -0.2475133240222931, -0.2750038206577301, -0.1820511370897293, -0.18288288451731205, -0.19520518015469274, -0.2100200001284373, -0.2040233047770672, -0.19389789445059638, -0.1754084686900294, -0.18870421975362497, -0.1597052663564682, -0.22076608198431302, -0.19520087283233115, -0.15910153090953827, -0.18442071974277496, -0.19810396432876587, -0.21063309124786486, -0.13758188877662603, -0.3080699145793915, -0.2631000578403473, -0.19559736549854279, -0.20713144540786743, -0.2002522361278534, -0.17630696296691895, -0.1718163639307022, -0.27687754687564126, -0.2053779661655426, -0.16467323541641235, -0.1605820943686095, -0.1560535430908203, -0.20403784790704416, -0.2759813070297241, -0.20107735693454742, -0.16913743107110862, -0.18863724172115326, -0.16663966682695205, -0.16370506584644318, -0.1717432290315628, -0.2110258138507878, -0.18685924391115993, -0.16595236957073212, -0.18124172682604514, -0.20809023910098604, -0.14816196262836456, -0.2029309868812561, -0.1872341846107343, -0.1804947555065155, -0.20425643026828766, -0.18451803922653198, -0.1958063840866089, -0.17236295342445374, -0.16279999911785126, -0.210014643928697, -0.24730609291422684, -0.19414863274210975, -0.21006067097187042, -0.20266381139630704, -0.1884240061044693, -0.23755092918872833, -0.20905692875385284, -0.21411231875419617, -0.20057428777217864, -0.3269575536251068, -0.1910760059631128, -0.22218192251105057, -0.19060908257961273, -0.18493016064167023], "high_level": [0.16083119809627533, 0.22431610524654388, 0.2161358305421032, 0.1828299427116421, 0.15941274860747773, 0.17790620856814912, 0.16991174221038818, 0.21527412186746728, 0.19376154243946075, 0.14808084070682526, 0.2253265529870987, 0.23228773323156066, 0.19112375378608704, 0.20636604726314545, 0.20996068347737473, 0.15778993389436174, 0.22530552721399022, 0.15872033312916756, 0.21851088106632233, 0.18429348812155102, 0.1583387951736581, 0.26557066705491805, 0.19672177532526453, 0.26840156258888614, 0.23455168306827545, 0.23289481712424237, 0.21085023880004883, 0.1682482659816742, 0.19968391954898834, 0.19831032186121375, 0.2146400783372962, 0.1939644416173299, 0.17298946131107418, 0.2192886620759964, 0.1845196634531021, 0.1982737098421369, 0.17945165932178497, 0.18495972454547882, 0.2095395177602768, 0.17569045380490725, 0.1754165142774582, 0.18817835976911146, 0.25297934668404715, 0.17957776932676964, 0.17037175595760345, 0.19651207210510735, 0.15414348244667053, 0.14898941233441546, 0.18343218441667228, 0.1559899002313614, 0.24134676821995527, 0.16693969070911407, 0.17510958015918732, 0.17119300467046825, 0.18496999144554138, 0.18576902471132725, 0.19138779394004657, 0.20084375920503036, 0.20320339250353583, 0.24848903715610504, 0.2002248764038086, 0.167310893535614, 0.17444320023059845, 0.19489426910877228, 0.19366653875580855, 0.16854732032239872, 0.19232867658138275, 0.22727687656879425, 0.18975075192843813, 0.19763705269856885, 0.17661011219024658, 0.18056820400736548, 0.18234170973300934, 0.17148278653621674, 0.249184521084482, 0.17135769128799438, 0.19252078235149384, 0.29888734131148365, 0.15063923597335815, 0.23135095834732056, 0.2221256047487259, 0.1797253042459488, 0.24393455684185028, 0.1784869283437729, 0.2095510625257725, 0.21087098121643066, 0.13880294561386108, 0.19242013537365457, 0.22270408272743225, 0.20777472796348426, 0.20558057618992667, 0.20433407814003698, 0.1619671164578154, 0.20331451616116933, 0.19250267446041106, 0.1723232137337896, 0.1625625640153885, 0.18477436900138855, 0.25166189670562744, 0.18714919686317444, 0.16966065764427185, 0.17958486080169678, 0.17309710383415222, 0.2105205783789808, 0.15705506503582, 0.25731024146080017, 0.18471957402209105, 0.1948315668250284, 0.16532417167004923, 0.24454858899116516, 0.15973490476608276, 0.22633708009914477, 0.21956551589554163, 0.188074389902445, 0.17561144284580066, 0.19255022704601288, 0.17769520676980807, 0.18151567479775796, 0.23106327652931213, 0.1713945616921075, 0.15833964943885803, 0.1723320037126541, 0.1992469344820295, 0.20889589190483093, 0.18701364884251043, 0.26933297350865987, 0.23774978518486023, 0.17033661379298168, 0.16276432573795319, 0.19308802638298425, 0.2192793013527989, 0.15754666924476624, 0.16873110830783844, 0.15222698562127307, 0.16365857422351837, 0.23410151898860931, 0.16668220795691013, 0.19512594892428473, 0.13978442549705505, 0.20305659994482994, 0.21242668747901916, 0.16661703542097292, 0.1608409583568573, 0.20983316069063934, 0.23637307564226478, 0.1987924873828888, 0.19679991900920868, 0.1896335482597351, 0.1780949166935423, 0.22443760931491852, 0.1701440652137372, 0.21450494352116514, 0.18292481265962124, 0.20587722957134247, 0.28653469681739807, 0.2251893084570272, 0.2289617657661438, 0.13192051649093628, 0.16678294725716114, 0.15928291208552617]}, "Conv_109/WithoutBiases/fq_weights_1": {"low_level": [-0.859015941619873, 0.0, -1.8681586980819702, -0.6200449466705322, -0.1278442236883887, 0.0, -0.5300784111022949, -0.9909171376909529, -0.9253023862838745, -1.0265486240386963, -0.6048883522672607, -1.3048985004425049, -0.1141018798528624, -0.11847372334372547, -0.6639369130134583, -1.9489288504781395, -1.4345044523477555, -0.4747192859649658, -1.489506789616176, -0.68239086136526, -0.9921678304672241, 0.0, -1.6028283282024105, -0.722055971622467, -0.2208099514245987, -1.7002546994582466, -0.43216076493263245, -0.8185573816299438, -0.4745789170265198, -0.3451580296100025, -1.3685108348727226, -0.30855032801628113, -0.17519821698152566, -1.8124104986588159, -2.2730995034271815, -0.4864494106271765, -1.8069608476426866, -0.7264378070831299, -0.9364454984664916, -2.2897077136569557, -0.6458189616332184, -0.6922480463981628, -0.08117436185295199, -0.5674731731414795, -0.5153493881225586, -0.7650800347328186, -2.0594565868377686, 0.0, 0.0, -1.4764492511749268, 0.0, -1.2886115157085918, 0.0, -0.4866698980331421, -0.831138551235199, -0.06035605072975159, -1.1348682641983032, -0.5289185643196106, -0.9952974915504456, -0.4963749051094055, -1.2014826032622108, -2.6034398125213327, -0.4878893494606018, -1.3602238564114824, -0.17760613240486334, -0.14288134001102684, -0.04983482509851456, -1.3822318770383535, 0.0, -1.6715000554666681, -1.2048944234848022, -0.5362848043441772, -2.5726003646850586, -1.5855369567871094, -0.8940487387996392, -0.6195397570653615, -0.9588456749916077, -0.056137395192341635, -1.4883155822753906, -1.1098301410675049, -2.12223744392395, -0.4252290986988642, -0.40285852551460266, -0.65753173828125, -0.47556185722351074, 0.0, -1.217416524887085, -0.2457269630600921, -0.6357351541519165, -0.007642679936658297, -0.2205070500720793, -0.4015817448572459, -0.6841281056404114, -0.9950701153796652, -1.1710319169189618, -0.8170599937438965, -0.5780259370803833, -1.0302829417315396, -1.56597101688385, -2.01808332889638, -0.645906388759613, -0.5735110640525818, -2.7000601579854777, 0.0, -1.1847624778747559, -0.3631340132819282, -1.2761666774749756, -1.168630916963924, -1.058588747392621, -0.7688282132148743, -0.9846251010894775, 0.0, -0.4207724332809448, -1.3378100395202637, -2.2465384006500244, -1.6971081495285034, -0.47577267476957136, -0.09608156413867555, -2.1767544124437417, -0.6657389998435974, -0.5312881469726562, -1.5902361869812012, -2.1194393634796143, -1.683664377246584, -1.0543521642684937, -1.0380330085754395, -1.847534418106079, -1.106682117496218, -1.795418620109558, -0.029608601704239845, -1.2465558257596245, -9.880138798763879, -0.7365080714225769, -3.532909870147705, -1.5142733146404397, -0.3959225118160248, -0.5933713316917419, -0.99062180519104, -0.3839487522206408, -1.4640169981867075, -0.714102566242218, -0.5850996375083923, -0.8626747998324308, -0.09054675698280334, -0.9757664203643799, -0.6730962190471712, -1.3702979117083403, 0.0, -1.2449126160902784, 0.0, -1.2260791063308716, -0.33064215609786707, -1.0742555606864885, -0.47169390320777893, -1.448318362236023, 0.0, -0.728419485267686, -0.16348846308116255, -0.017032193019986153, -0.18452724814414978, -1.3403974771499634, -1.304160475730896, -0.7249400615692139, -0.04303305968642235, 0.0, -0.6923902034759521, 0.0, -1.4836143255233765, -1.2735926332608076, -0.6833947074824366, -0.6365498900413513, -2.494655890342517, -0.7296842336654663, -2.776493549346924, -0.7713912129402161, -0.5571036338806152, -1.1257374286651611, -0.901827871799469, -0.5013032555580139, -1.3235872983932495, -1.1815905649411051, -0.6231125593185425, -0.46103760600090027, -0.11658109504668439, -0.40972150027096926, -0.42448974008043416, -0.7072659134864807, -1.019098440396417, -0.5090091228485107, -0.13076826930046082, 0.0, -0.7893444987916455, 0.0, -1.718199381014196, -0.7489899396896362, -0.7196979859600896, -0.475446492433548, -0.7417360544204712, -0.924175500869751, -1.796979308128357, -1.047270655632019, -1.4299898627516512, -2.017058557079684, -0.5657224655151367, -0.7980208992958069, -0.9387813210487366, -1.0279284323318096, -0.04650099754333496, -0.6675385422443025, -1.3116862773895264, -1.4592165507254053, -3.3342569725854054, -0.5473983287811279, -0.7792661539886309, -0.6705300211906433, -0.6453407919684122, -0.566476583480835, -1.8658433267846704, -0.6265488266944885, 0.0, -1.1638050610852089, -0.7222780585289001, -0.8952054381370544, -0.8712729811668396, -0.5658129453659058, -1.106774384325201, -1.2422409057617188, -1.3830026388168335, -0.8135254258333251, -0.7173362412760335, -1.0116888966863555, -1.2721952199935913, -0.055871590971946716, -1.2049644036207372, -0.46524468064308167, -0.024770086631178856, -0.673466682434082, 0.0, -0.8477105498313904, -1.0121377798227165, -0.9735569985497077, -0.6793513027951121, -0.7193508500402623, -2.620705025811349, -0.8077249526977539, -0.3714495897293091, -0.506134033203125, -0.15222434794649164, -1.1293085165191115, -1.6347289482752483, -0.12242674827575684, -0.5175034999847412, -1.5539342164993286, -0.8986053084954619, -0.9736255621642209, -0.8342134315859188, -1.016627694285193, -1.1263835430145264, -0.6988886594772339, 0.0, -1.0359086990356445, -0.9678654168781481, -1.1426863767662827, 0.0, -1.3313749170884854, -0.48907819390296936, -2.190684348344803, -0.7713878154754639, -0.8653681874275208, -0.5190736651420593, -0.5011398792266846, -0.1006821021437645, -0.6470186114311218, -0.5466980338096619, -0.6749410180563338, -0.5953444242477417, 0.0, 0.0, -0.6624916195869446, -0.22079563659170398, -1.5263838353364365, 0.0, -0.8489882990999041, -1.9434332814935136, -0.5127800703048706, -0.8204853013157845, -1.1513725519180298, -1.2326940298080444, -1.4044758019419763, -1.3220467567443848, 0.0, -0.8259323941179987, -1.0573599338531494, -0.3588780415685553, -0.9336950182914733, -0.09606656432151794, -1.5209879875183105, -0.39949169754981995, -0.7368727657530043, -0.8936176300048828, -1.1733859777450562, -1.327836036682129, -1.1667766530771515, -0.7073357542590982, -0.7278910875320435, -1.4244351599897656, 0.0, -0.763791024684906, -0.904396632932267, -1.8760416507720947, -1.1143330484628677, 0.0, -3.5436436533927917, -0.45468902587890625, -0.7659773230552673, -0.5285761952400208, -2.855160690123035, -0.9259842038154602, -2.2469166778936622, -0.7195307612419128, -0.9520564675331116, -0.6723427772521973, -0.8160863413086421, -0.1656817472898043, -1.6336206197738647, 0.0, 0.0, 0.0, -0.9263929756064164, -0.40773475978334073, -2.2959940433502197, -0.45132295901958763, -0.5613638162612915, -0.5957658008525246, -0.679823311211551, -0.536645233631134, -0.18303330364145437, -1.6028905519067425, -0.8602075576782227, -0.615691602230072, -1.404923677444458, -0.40618908405303955, -0.9560856410435268, -1.2500259016380935, -0.9861284494400024, -1.9823616743087769, -0.3798580467700958, -0.7698776721954346, -0.16751019656658173, -0.8598652365219653, -0.7683770656585693, 0.0, -0.3501150249277504, -1.2378966652828713, -0.7813583612442017, -0.10603604807874165, -1.0620932579040527, -1.5047123432159424, -0.9010142087936401, -1.6413073747054392, -0.45979905128479004, -0.3922276496887207, -0.4482540786266327, -1.3999304141638413, -0.48886916041374207, -0.8986324071884155, -1.4615031211606917, -0.6401785612106323, -0.6060829758644104, -0.06106994301080704, -1.0439932306070587, -1.3166066408157349, -0.5542982708324086, -1.524381308031332, -2.423726462246327, -0.7139831070195545, -0.4315638347427444, -1.7881289720535278, -0.6373741626739502, -1.1599024534225464, -0.6648009419441223, -0.9867127736409506, 0.0, -1.88957941532135, -0.7709113244087465, -1.2399564509590468, 0.0, -0.6972417235374451, -1.0565301660905804, -0.5703241229057312, -0.6871852278709412, -0.31639148662616684, -1.772353172302246, -0.9397843599319458, -0.06629090011119843, -0.7083351016044617, -0.8181270235147907, 0.0, -1.2129226207733153, -0.44532153010368347, -1.6157351732254028, 0.0, -0.7455540205302991, -2.0116593837738037, 0.0, -0.1450802316056921, -0.8938004042574033, -1.6433383226394653, -1.4677269079123332, -0.22136037032491662, -0.7239882349967957, -2.0030770301818848, 0.0, -1.295335166357659, -0.8691541231595553, -0.8097836971282959, -3.0837665469415723, -1.1637129701417068, -0.5196048617362976, -0.5322161316871643, -2.232725744378077, -1.4658001491001673, 0.0, -0.18190908432006836, -0.5662460923194885, 0.0, -0.4106590151786804, 0.0, -1.3521918329862086, -1.0510857105255127, 0.0, -0.4151109457015991, -0.7386506795883179, -0.4655209183692932, -1.0429072380065918, -1.0371424136027485, -0.689691960811615, -0.14033234119415283, 0.0, -1.7182722091674805, -0.8241098523139954, -0.8021824359893799, -1.3787912053446616, 0.0, -0.5299189686775208, -0.4612281620502472, -1.2978929281234741, -0.5213385820388794, -1.0068863294401222, -0.6189332976937294, -2.4727885055541994, -1.6269868126041012, -0.6657366156578064, -1.1620378155599942, 0.0, -0.5322824155446142, -0.49799880385398865, 0.0, -0.6823994517326355, -0.20933064818382263, -0.669680118560791, 0.0, -0.7600381374359131, -0.06749982386827469, -3.826521796839578, -0.6816956996917725, -0.7148367032826504, 0.0, -0.7983880043029784, -0.7080401182174683, -0.7456595301628113, -1.1159316301345825, -0.5994816422462463, -1.318871152735202, -1.370420249608847, -0.594356119632721, 0.0, -0.47224247881344383, -0.7552639842033386, -0.7676921340654481, -0.2009317364011492, -2.321063766556401, -0.6547139286994934, -0.4881928861141205, -0.4415533244609833, -0.015729065984487534, -0.40121352672576904, -0.43140819668769836, -0.22755943626034103, 0.0, -2.557497512549162, -1.0319541692733765, -0.6694780588150024, -2.091987371444702, -0.24518315494060516, -1.054771900177002, 0.0, -0.5324644446372986, -0.6757939112813849, -0.6824983358383179, -1.7051907777786255, -0.48236584663391113, -1.2066598773002624, -1.5855772012755982, -1.7649496793746948, -1.0428576469421387, -2.176565170288086, -0.5399645566940308, -0.8335208582551512, -1.8778833150863647, -0.520698070526123, -0.4942336082458496, -1.4089909791946411, -0.5876807570457458, -1.3223755529948642, -0.03464352712035179, -0.5781997442245483, -1.117365905216762, -1.5137583017349243, -0.49114421010017395, -0.5104595422744751, -1.619764331203179, -0.5048122655099897, 0.0, -1.5669625997543335, 0.0, -1.1055513620376587, -0.963963508605957, -3.6761977672576904, -1.1588386765548162, -0.7889190912246704, -0.7320016782198633, -0.7159157067957058, -0.6215681880712509, -0.025001486763358116, -1.4148620670124636, -0.1839067694374118, -1.2563124895095825, -2.153739193923601, -1.4930832386016846, -0.10703714936971664, -2.036262035369873, -0.8772127628326416, -0.5900064706802368, -2.57828688621521, -0.7911561225271467, -1.3095630407333374, -2.5114400386810303, -4.1978230476379395, -1.4176850318908691, -1.6563924662974658, -1.0869635343551636, -0.8802407383918762, -0.04134622703035514, -1.8922171797489096, -1.239325964892352, -1.6669874427082774, -0.34460389614105225, 0.0, -1.3807475566864014, -0.7647806406021118, -2.491472546870892, -0.6186825633049011, -0.7662065625190735, -0.05059312133171298, -0.6583126187324524, -1.9026298863547189, -0.017292384590421404, -0.5619078874588013, 0.0, -1.5160019397735596, -0.22064727544784546, -0.5356244444847107, -0.10852774977684021, 0.0, 0.0], "high_level": [1.2885239124298096, 1.961056113243103, 1.796306440463433, 0.0, 1.2895591259002686, 2.755483865737915, 0.0, 1.3487483263015747, 0.9473333954811096, 2.12730558234525, 2.361391067504883, 2.519804000854492, 2.1240503787994385, 1.7697012424468994, 0.0, 1.6264442205429077, 0.9254867434501648, 0.0, 1.0426547527313232, 2.266925573348999, 0.0, 1.7791931629180908, 1.493544578552246, 1.323769281307856, 2.5945169292390347, 4.406293869018555, 0.0, 5.5066587491468955, 0.0, 1.7504442930221558, 2.3048603534698486, 0.0, 2.306776523590088, 0.06630770117044449, 3.7648210525512695, 1.2127916812896729, 2.0328309535980225, 2.7686874911470234, 1.3377792835235596, 1.0658984184265137, 1.706807255744934, 2.2015757541187475, 1.6437808275222778, 1.9274519846357148, 0.0, 1.6736125759780407, 5.234452158212662, 1.8413923978805542, 3.9371497631073, 2.6608535955240438, 1.7190817594528198, 1.0585023164749146, 1.2428373098373413, 0.0, 0.0, 1.8634930662810802, 2.4378651601296886, 0.0, 1.1022302798988406, 1.8476177023516762, 1.0026761293411255, 1.7641730308532715, 1.8160325785477958, 2.0073206424713135, 3.306206464767456, 2.4596002101898193, 2.491741254925728, 2.0397984981536865, 1.5212273597717285, 1.4396861791610718, 1.749414018713511, 0.0, 1.5793812365471565, 1.0570246378580728, 1.2567288875579834, 2.1042988300323486, 1.510908336350412, 2.3297019004821777, 2.4650226831436157, 1.4170152693986893, 1.0799551489790518, 2.586810350418091, 0.0, 0.0, 0.0, 2.066924810409546, 2.921799659729004, 1.914975643157959, 0.0, 0.13156327605247498, 0.24419789016246796, 1.3639931678771973, 0.0, 1.7043222188949585, 3.0347869396209717, 0.9946817315143088, 0.0, 1.1056694984436035, 0.9937892991762894, 5.662681579589844, 0.0, 0.0, 1.4982041120529175, 1.3609435558319092, 1.8064695207199248, 2.0112037658691406, 1.7938569334318053, 1.2541404962539673, 2.15498423576355, 0.0, 0.0, 2.2969303131103516, 0.0, 1.6546597857224314, 2.228987319394946, 2.5044702789158495, 2.8942837715148926, 0.12665297091007233, 1.788048267364502, 0.03287599999227642, 1.7649572340108581, 0.0, 1.5823211686251915, 0.8270632028579712, 1.6614034103624749, 0.8001504441102346, 2.5554681670999972, 2.1370413303375244, 1.0482568341012326, 2.487122543156147, 2.6777865886688232, 7.988197326660156, 0.0, 6.2593946612399565, 1.9960875511169434, 0.0, 1.8083697727748325, 3.290879217244811, 4.511397838592529, 1.4755446910858154, 0.0, 0.0, 2.3723556995391846, 3.207942247390747, 0.0, 1.71078622341156, 2.4278104305267334, 1.2854374647140503, 2.626461982727051, 1.7724231481552124, 0.0, 1.9481078386306763, 2.0386440753936768, 0.0, 1.681522166324874, 2.678964614868164, 1.2905693054199219, 1.6491010189056396, 0.6034262669937952, 1.1225407595435777, 2.112141479145397, 0.04224001540828813, 0.0, 0.1093756933696568, 1.9227018356323242, 3.0641949430425117, 2.2666192054748535, 1.1436193759242694, 1.6004438400268555, 1.4680330753326416, 1.2958337047270365, 2.115034341812134, 0.795475435061533, 2.9796516139332843, 0.0, 0.0, 2.9174040404843615, 1.267663706586046, 0.0, 1.9217469428594296, 1.743706464767456, 0.0, 0.0, 2.5859806537628174, 0.22734546661376953, 1.6571426391601562, 0.0, 3.2410671710968018, 0.0, 2.092292308807373, 2.9736545085906982, 2.5103743076324463, 1.2474205493927002, 1.6010494232177734, 2.144834827293049, 1.8651328086853027, 1.7288963361219927, 2.576556820618479, 1.784614760300209, 2.485541472925204, 1.4027661992869245, 2.1803805828094482, 3.1264407634735107, 0.0, 0.0, 1.9110905464206422, 1.6743576526641846, 2.325049877166748, 2.372145891189575, 1.674742300595556, 1.3385294675827026, 1.261610746383667, 0.0, 0.9191344380378723, 0.0, 1.3373327255249023, 0.0, 1.8805350065231323, 0.0, 1.9127975702285767, 1.864463210105896, 0.0, 2.3199690227777188, 0.0, 0.0, 1.6875569820404053, 2.3169886556903965, 1.1005584379317055, 1.6858599185943604, 1.933688998222351, 2.1344168186187744, 2.2160819961178686, 0.11373859590717723, 2.286693811416626, 0.0, 0.046200386300850445, 0.0, 2.3307645320892334, 3.1553670465946198, 1.292283058166504, 1.413529872894287, 0.016369910910725594, 0.5457144379615784, 2.4806673526763916, 1.5597447362439387, 1.0422764607329866, 0.0, 1.7886360883712769, 2.2989494800567627, 2.120729446411133, 1.6119521856307983, 0.0, 1.891746002694835, 0.02165313996374607, 2.250718832015991, 0.12400469928979874, 1.0408331155776978, 3.5822689728658705, 2.938184976577759, 0.8579983711242676, 0.0, 1.9702974557876587, 1.5553231239318848, 2.6710124015808105, 2.3994009494781494, 0.0, 1.4133447408676147, 0.6856780582004123, 1.7307363748550415, 0.0, 0.0, 1.610913634300232, 0.0, 2.853497054518723, 1.5602532625198364, 0.0, 0.822314977645874, 1.8564962148666382, 0.0, 2.0313198566436768, 1.2538152933120728, 2.171902656555176, 1.4061368703842163, 2.60313081741333, 0.0, 0.298358291387558, 1.2163693895263057, 1.819121286707017, 2.963101387023926, 1.534918692152379, 1.8992247581481934, 1.6230531930923462, 1.5860399007797241, 3.0305256843566895, 1.3338500261306763, 2.1309310631318525, 2.9370802517594963, 2.2125694018143873, 4.081141471862793, 2.841997052802414, 0.0, 0.12537507642492204, 1.6138592958450317, 1.3899970054626465, 0.0, 1.7340949773788452, 1.4955193996429443, 0.0, 1.4979069232940674, 1.2103494521110287, 1.4456212520599365, 1.5478655099868774, 2.44065523147583, 0.0, 3.574560840924581, 0.0, 1.6390737295150757, 2.2223620891571043, 2.0937178134918213, 1.296736756523887, 1.0543435260284046, 1.3446855545043945, 1.32929527759552, 1.846168041229248, 1.9887555371160093, 1.8788286447525024, 1.126885175704956, 1.7147177457809448, 2.7079179286956787, 0.12273648381233215, 2.978586867048934, 1.4667996168136597, 0.0, 1.7414692640304565, 2.0288476943969727, 0.0, 1.9384890794754028, 2.146991014480591, 2.3188203728717305, 0.0, 2.0732854269083263, 2.8306301794946194, 2.091437339782715, 1.1466403007507324, 1.6890072378706427, 2.230156883597374, 1.772670884927114, 3.0795106887817383, 2.080652967879647, 3.0555925369262695, 0.0, 3.123467445373535, 1.471912145614624, 1.460083246231079, 0.0, 1.1230181455612183, 1.619429323932912, 1.7747889176393168, 0.0, 1.3482167720794678, 0.0, 2.638622370633212, 0.0, 2.3186347484588623, 0.0, 1.7659171722656073, 2.2653298377990723, 0.0, 0.0, 0.19847731478512287, 1.4440280199050903, 1.7920479277769725, 1.5243202447891235, 4.549325466156006, 1.2994678020477295, 1.5906459093093872, 1.644828200340271, 2.554469960076468, 0.0, 1.6840891391038895, 0.0, 1.280059814453125, 2.2675673961639404, 2.7885055449402447, 2.078108787536621, 1.60859215259552, 2.0289814472198486, 0.2535424449227073, 2.1507935523986816, 0.1716792002624395, 0.0, 3.0452680587768555, 2.4123695956336126, 1.3425490856170654, 2.0467315409332514, 0.0, 2.9072728157043457, 2.4761290550231934, 1.7327466011047363, 0.0, 2.862661230823268, 1.8126623630523682, 0.4426726996898651, 4.920410114365655, 1.8643734455108643, 1.7046927213668823, 1.6961894035339355, 2.676777886361191, 2.351358413696289, 2.344407558441162, 1.6736351406419432, 1.7252780259960758, 1.5949885845184326, 1.791678547859192, 2.8247509002685547, 0.0, 2.91898512840271, 2.4998278617858887, 0.0, 0.0, 2.9906234741210938, 1.2825751304626465, 2.0542643070220947, 2.546727180480957, 0.0, 3.0305490493774414, 0.0, 2.2068991661071777, 0.8868271112442017, 2.3416593044619014, 2.7598280906677246, 0.0, 1.503681740590504, 0.0, 1.0846235275268554, 1.3033117055892944, 0.0, 2.415721016270774, 1.2464449405670166, 2.1592447230246212, 1.2773702710866928, 0.0, 0.7915282845497131, 1.631654977798462, 0.0, 0.0, 1.392860703352021, 0.0, 2.462789535522461, 1.88627290725708, 2.377681255340576, 2.4009902477264404, 3.192509679631754, 0.05238695070147514, 0.946466326713562, 0.07638133317232132, 0.0, 1.9591691493988037, 0.0, 3.1268765572458506, 0.0, 4.36414909362793, 1.417599222633276, 2.084057061932981, 0.10800666362047195, 0.0, 3.7310988903045654, 1.4308863878250122, 2.485304594039917, 3.6956240316716635, 0.0, 2.3971864647335477, 0.0, 0.953508198261261, 1.4252370595932007, 0.0, 2.5193777084350586, 0.04238073527812958, 0.0, 1.2714900970458984, 2.813044309616089, 2.1970374584198, 1.2003088692824044, 0.0, 0.0, 3.9951827600598335, 0.0, 0.023174820483223467, 1.844856858253479, 2.5869665145874023, 2.5776352882385254, 1.2171767124762902, 0.0, 3.3514491562940636, 1.3178594578057528, 0.527385950088501, 0.6865881085395813, 0.0, 1.9753975868225098, 0.0, 1.888393092746577, 0.0, 1.7237998247146606, 1.5487033128738403, 0.13404681109174899, 2.2812511026859283, 2.372812849576356, 0.0, 1.1164591312408447, 2.1461523600987022, 0.0, 0.0, 3.874725192785263, 0.0, 1.6098484992980957, 2.173881326802075, 0.0, 0.9776951670646667, 1.9022449455430022, 0.0, 0.0, 2.276838541030884, 1.8790234327316284, 1.1259901523590088, 1.1328716092818494, 1.1664326190948486, 3.7550623848520477, 1.6791622407974736, 2.5319507800980117, 2.237757444381714, 2.1266514633012856, 0.35957977175712585, 3.6307153701782227, 0.05289942026138306, 1.2500743381679058, 3.210648536682129, 1.4909584522247314, 1.9155655780641159, 2.2753212451934814, 1.1694078512125081, 1.9925377036516485, 0.0, 1.723825080450191, 0.0, 0.9948824397895647, 2.6872026920318604, 1.2202746515924279, 0.0, 1.436097358402453, 0.9297804429933623, 4.051446437835693, 1.4101148553796718, 0.0, 2.594475746154785, 3.35251522064209, 2.1588258743286133, 0.9249747395515442, 0.0, 2.4422855377197266, 2.8613081897597716, 0.8207401996705591, 2.5911314487457275, 0.2777041051198136, 1.2904531579268606, 1.5620626211166382, 2.6332504749298096, 2.3162450790405273, 1.452560305595398, 0.0, 2.0439016819000244, 0.8556575365593097, 0.8613730176137043, 0.0, 1.7364439964294434, 0.6799293756484985, 1.263002872467041]}, "Conv_28/WithoutBiases/fq_weights_1": {"low_level": [-0.1141878142952919, -0.0381825160472951, -0.10373032838106155, -0.047691840678453445, -0.08937735855579376, -0.06126969221026398, -0.1131339892745018, -0.05490228684189228, -0.06876821805899208, -0.12180566787719727, -0.11840590834617615, -0.1482389611857278, -0.09952014684677124, -0.16661503911018372, -0.10925853252410889, -0.11463874578475952, -0.1353748345375061, -0.15817521839607054, -0.16876673787508323, -0.17888528108596802, -0.19509510695934296, -0.08522648158225607, -0.15611084652217952, -0.11142098006199706, -0.19719025492668152, -0.0743417888879776, -0.033796112009342884, -0.14626110508674528, -0.11200240545156526, -0.12096949731526167, -0.08497886943656045, -0.13475735485553741, -0.09688715537895962, -0.1529424786567688, -0.07232449948787689, -0.18154903802161032, -0.1494782269001007, -0.14026353339995107, -0.0971918759508903, -0.17999884486198425, -0.10978668183088303, -0.23410743435746745, -0.19464311003684998, -0.09760358344231332, -0.19821013184264302, -0.09306346625089645, -0.08016584068536758, -0.07202795147895813, -0.10653658477323395, -0.09101431358319062, -0.07734152674674988, -0.15605920553207397, -0.0903182742388352, -0.263397821358272, -0.1785280704498291, -0.11724857869558036, -0.1584308547899127, -0.11420782655477524, -0.18610897660255432, -0.07752423797194896, -0.1438651978969574, -0.13276992738246918, -0.01898232102394104, -0.027306756004691124, -0.17409513890743256, -0.08927181997197739, -0.12979478306240505, -0.11676392409441283, -0.23006770014762878, -0.14417539416132746, -0.025187505366788668, -0.12131635844707489, -0.11501901596784592, -0.10622497648000717, -0.09995193779468536, -0.26656022667884827, -0.08908468843811619, -0.08187902718782425, -0.07115766480565071, -0.058856576681137085, -0.10749626532196999, -0.04218569491058588, -0.021629647204750465, -0.15967452147249447, -0.1163813238023618, -0.09521667659282684, -0.07684758580794, -0.11850822224455365, -0.24239163427818114, -0.31394010191818456, -0.0811284133366176, -0.12706650924440976, -0.10943993926048279, -0.12304605543613434, -0.17350399494171143, -0.03780744597315788, -0.11632340034442162, -0.06402705173666885, -0.06984328478574753, -0.06741972138426897, -0.0986715629696846, -0.03646007925271988, -0.1395568549633026, -0.10005784034729004, -0.1599540477845727, -0.12752443552017212, -0.039365439392302345, -0.027638111263513565, -0.06081403426404269, -0.19859930872917175, -0.026855438947677612, -0.11313947290182114, -0.12494762241840363, -0.19918963313102722, -0.0786972440779209, -0.025206410222583346, -0.048082951456308365, -0.12518611550331116, -0.07667376846075058, -0.07672900274680677, -0.05056490749120712, -0.1667506830450499, -0.05081980675458908, -0.1515650512607953, -0.09865469227616604, -0.0938093566125439, -0.15142007172107697, -0.07233333587646484, -0.14566720073873346, -0.15380913019180298, -0.09961630722690869, -0.10296644812280481, -0.1998921942252379, -0.08379564434289932, -0.11650863067011967, -0.05886833742260933, -0.08728036284446716, -0.19306790782138705, -0.1376780876240065, -0.0628828372467648, -0.07860981673002243, -0.15407411970438495, -0.09427881240844727, -0.08740033954381943], "high_level": [0.1923163188131232, 0.047225743532180786, 0.09818748640650102, 0.07392235305160284, 0.13853490576148034, 0.06272849440574646, 0.12528888068415903, 0.24297182261943817, 0.09511865675449371, 0.12667789459228515, 0.14188294189757314, 0.14479154348373413, 0.08846235275268555, 0.06555345801056409, 0.11542635290853438, 0.09873994162482937, 0.1301681101322174, 0.14739054441452026, 0.09525484591722488, 0.14235237156841118, 0.10103139467537404, 0.10541170090436935, 0.16753359138965607, 0.11957373470067978, 0.2116188101652192, 0.12109281076598413, 0.047505855560302734, 0.06932607293128967, 0.10436587780714035, 0.14268197119235992, 0.1175408661365509, 0.1614764855596526, 0.023045973852276802, 0.08632336218664251, 0.1703432290569732, 0.12504039704799652, 0.10463475883007049, 0.08052165806293488, 0.16646693646907806, 0.10509249327345664, 0.12547049352100917, 0.09939756989479065, 0.11556934658437967, 0.09533373266458511, 0.11967404186725616, 0.12073098324440622, 0.061794502194970846, 0.1696447804570198, 0.12969671189785004, 0.14341649413108826, 0.20043437917467574, 0.14541880515488712, 0.154694065451622, 0.1843784749507904, 0.06888854892357536, 0.07079159468412399, 0.0956563651561737, 0.07613855103651682, 0.06904042680417338, 0.11440470069646835, 0.121972667782203, 0.09754525277079369, 0.01660953089594841, 0.023893411504104733, 0.09496098485859956, 0.11041514575481415, 0.1460191309452057, 0.13991539180278778, 0.09051843940234575, 0.11113519966602325, 0.05611393600702286, 0.15991701795296234, 0.25160409742966294, 0.10054883269863274, 0.1404984785981898, 0.08563074639424141, 0.10342883318662643, 0.1269124921411276, 0.1016538068652153, 0.05231695704989963, 0.0955522358417511, 0.04821222275495529, 0.03191947937011719, 0.1375298798084259, 0.086887426674366, 0.08463704586029053, 0.12311296910047531, 0.10207277536392212, 0.2258649319410324, 0.08237042278051376, 0.177468404173851, 0.1757555454969406, 0.058675630085439565, 0.1546242466542573, 0.19829027993338447, 0.0305677222761702, 0.12882095575332642, 0.05966157093644142, 0.06015698981546137, 0.14223916828632355, 0.06261849188460754, 0.037328176377784635, 0.08567730969266048, 0.10907944890319324, 0.1490480899810791, 0.17357492612467873, 0.046431031078100204, 0.027422188519267365, 0.10072324424982071, 0.09929965436458588, 0.028820471065800365, 0.07919763103127479, 0.08329841494560242, 0.18560852178118445, 0.11242463439702988, 0.028357211500406265, 0.0928498372949403, 0.09804786668790805, 0.057242744946724745, 0.12292299419641495, 0.05512403849451268, 0.11862800270318985, 0.046616664842555396, 0.1601211428642273, 0.10260087996721268, 0.14540450274944305, 0.11304649190135198, 0.07522666931152344, 0.09244264662265778, 0.1367192268371582, 0.2101661115884781, 0.028315773233771324, 0.3149816393852234, 0.12166482976709421, 0.08423259109258652, 0.053999527560589004, 0.12672437297610137, 0.08825961500406265, 0.2853088080883026, 0.09588076174259186, 0.0804814790331182, 0.14584115147590637, 0.08785071156241676, 0.191188242752105]}, "Conv_133/WithoutBiases/fq_weights_1": {"low_level": [-0.19629007577896118, -0.18313057720661163, -0.14639024933179218, -0.17793212831020355, -0.16398870944976807, -0.20352321261659675, -0.17575476853780345, -0.25683504343032837, -0.17468534409999847, -0.2160661731447492, -0.15919850997521845, -0.1456025093793869, -0.17533904314041138, -0.21269528508186342, -0.15490585987962135, -0.17020181686647476, -0.16292943991720676, -0.18815003335475922, -0.21112999320030212, -0.17211085557937622, -0.17144888009823545, -0.19510098360478878, -0.1728330012410879, -0.16267599165439606, -0.17090760357677937, -0.19819781184196472, -0.2769209146499634, -0.22017709910869598, -0.19556023180484772, -0.21571944653987885, -0.20548166283245745, -0.18208013659846173, -0.18103167228400707, -0.19469323754310608, -0.19425290352419802, -0.2452960383324396, -0.30671218037605286, -0.15184812992811203, -0.18526378273963928, -0.19372911751270294, -0.2136172652244568, -0.1700469015313567, -0.1923404335975647, -0.17688147723674774, -0.16233375668525696, -0.21446338792641959, -0.1669396311044693, -0.1952528953552246, -0.1985132247209549, -0.17730588237131675, -0.1490378975868225, -0.18672755360603333, -0.18411627753090312, -0.1617021279578859, -0.21083014458417892, -0.18596844375133514, -0.24104937433286477, -0.20571166276931763, -0.2026270627975464, -0.18497638824658516, -0.22206159148897442, -0.21234267950057983, -0.14487655460834503, -0.22865185416058492, -0.17064693042387566, -0.16018319129943848, -0.18268413166348027, -0.1870867446774528, -0.2535483129322529, -0.17800424993038177, -0.1913107931613922, -0.18236344788343675, -0.18791131800367633, -0.19412254966980172, -0.1919000575044116, -0.2607655798873076, -0.19415152072906494, -0.16523215791274762, -0.21496906876564026, -0.17449328303337097, -0.20125666039049134, -0.20103674568235874, -0.19741693139076233, -0.28033666732983714, -0.2048487365245819, -0.17836604118347169, -0.18370847404003143, -0.16373515350593104, -0.2283444995510167, -0.2125045508146286, -0.20195651054382324, -0.19253532588481903, -0.1822725534439087, -0.18127146363258362, -0.2107766842842102, -0.16471225023269653, -0.22402699788411456, -0.2271811247781943, -0.2256916218365614, -0.21769416332244873, -0.1746332367712801, -0.21657510852455195, -0.16305792226757804, -0.23063044622540474, -0.25501057505607605, -0.15833552678426105, -0.19277815520763397, -0.19334284961223602, -0.20100007951259613, -0.17213451862335205, -0.1549389169954542, -0.2077421098947525, -0.2170419842004776, -0.16209305822849274, -0.2594248875975609, -0.19727672636508942, -0.17165566980838776, -0.190008744597435, -0.15359358489513397, -0.1893667236087829, -0.1561874896287918, -0.1828426867723465, -0.19677160680294037, -0.2511363378110922, -0.1802748739719391, -0.1644714938269721, -0.18798848797581091, -0.17520764881550377, -0.19546479764192, -0.16637027263641357, -0.18516476387562958, -0.16137322783470154, -0.17669899761676788, -0.18942053616046906, -0.21353932363646372, -0.25540245324373245, -0.15456708893179893, -0.17272739112377167, -0.24465720355510712, -0.1565917432308197, -0.15692757070064545, -0.1909204798284918, -0.199088454246521, -0.17675648629665375, -0.16195112466812134, -0.1845814734697342, -0.2689782738095463, -0.2176709771156311, -0.17402464151382446, -0.24022061513228848, -0.18401607871055603, -0.20748810470104218, -0.27389803528785706, -0.1788128763437271, -0.2273511104285717, -0.20864508833203996, -0.1803937405347824, -0.18702414761418884, -0.18523797684146048, -0.14835937810640265], "high_level": [0.1744800673590766, 0.18457255025548258, 0.2195853739976883, 0.24611172887766472, 0.2342695849282401, 0.15194541215896606, 0.22085997462272644, 0.19174671050620407, 0.23026704449545252, 0.18905790150165558, 0.20005476474761963, 0.15625635152909814, 0.17671966552734375, 0.20451469719409943, 0.15369565784931183, 0.16110706329345703, 0.18620507419109344, 0.1725887524006062, 0.1967347663911906, 0.1998236204608012, 0.2154490351676941, 0.17342309653759003, 0.19752342998981476, 0.1564192227446116, 0.19532297551631927, 0.19057481907881224, 0.15629892115212657, 0.2051650241694667, 0.19710007614976777, 0.20101130245761437, 0.2708621919155121, 0.21139812469482422, 0.20689333975315094, 0.18141869861971247, 0.2117675095796585, 0.23959147930145264, 0.16444207261125726, 0.2033929079771042, 0.2328093553011396, 0.20466543866261358, 0.1869151070713997, 0.20376309752464294, 0.20319836130065302, 0.31338783466945525, 0.1914705848082518, 0.1575649380683899, 0.15555738352916457, 0.14577099721725673, 0.21303858262736625, 0.17592068016529083, 0.2310087412595749, 0.19117344773951028, 0.19450993835926056, 0.17353399097919464, 0.1874045729637146, 0.23744185228965112, 0.25465700030326843, 0.17440771408703015, 0.18881158124316821, 0.15682780742645264, 0.2168973684310913, 0.31851401925086975, 0.20039000076668284, 0.18486745655536652, 0.22137980163097382, 0.1614444762703002, 0.2189059853553772, 0.1827358901500702, 0.22537627816200256, 0.18805287694258074, 0.17005403836568195, 0.1726188361644745, 0.19851921498775482, 0.17528976500034332, 0.17602862417697906, 0.17960013449192047, 0.22541320627018557, 0.21780602633953094, 0.2132896229159087, 0.18434371030138383, 0.18173176050186157, 0.22975628077983856, 0.15462025395640128, 0.237676739692688, 0.22331870457188027, 0.17150580883026123, 0.1607449147850275, 0.226474791765213, 0.19056087732315063, 0.171812190020338, 0.15320838730910727, 0.17940791730176317, 0.2116215239136906, 0.18269879799189528, 0.2026698887348175, 0.25114541124589373, 0.2520303726196289, 0.24000586569309235, 0.1554432362318039, 0.20932131088696995, 0.18741127848625183, 0.2361023724079132, 0.20490464568138123, 0.20500484108924866, 0.1965706516057253, 0.1781274676322937, 0.1973681112840062, 0.18590658616561156, 0.1651072081710611, 0.20955506615016772, 0.17158524692058563, 0.16270710705043553, 0.20869421557738232, 0.17950801489766965, 0.1729499250650406, 0.1753570901023017, 0.1813459092330548, 0.19453276232594535, 0.14089035606922062, 0.1878872960805893, 0.20920526133764775, 0.17307246686848066, 0.23208958751116043, 0.17866075038909912, 0.23017238373202936, 0.18503043055534363, 0.2081855982542038, 0.19403161108493805, 0.16056036949157715, 0.19623160362243652, 0.21839946508407593, 0.19336964369847856, 0.16725706644640626, 0.14835734300680095, 0.1494775265455246, 0.19375358521938324, 0.18816863000392914, 0.2467534158911024, 0.16045699713679104, 0.16032011806964874, 0.14854212799145067, 0.19242379069328308, 0.17420239746570587, 0.20200741291046143, 0.14170723408460617, 0.19500139535915467, 0.1764078289270401, 0.219384921817329, 0.17539491428164986, 0.18223632872104645, 0.21364578629954387, 0.20586710388306528, 0.2044855194957289, 0.1949353488009484, 0.20208987593650818, 0.18256445229053497, 0.15294251914905466, 0.15362697839736938, 0.20193976163864136, 0.1722477525472641]}, "Conv_138/WithoutBiases/fq_weights_1": {"low_level": [0.0, -1.0452555418014526, -2.3198087414105735, -0.3955128788948059, 0.0, -0.48569175601005554, -0.9281265139579773, -2.0643727779388428, -0.4436972141265869, -0.4284093379974365, -0.7019650936126709, -0.152887761592865, 0.0, -0.46066004037857056, -1.2466831339730158, -0.9689660886438882, -0.37467846274375916, -0.5527351498603821, -1.16258704662323, -0.46988046169281006, -1.313952386379242, -1.00313280836532, -0.38021519780158997, -1.0319671545709883, -1.4406163692474365, -0.4976721772780785, -1.2384217977523804, -0.705380916595459, -0.6245996952056885, -0.8503724336624146, -0.8000296730323125, -1.3897592226664226, -1.5470666347957047, -0.5255746117659977, -0.37261679768562317, -1.0746067008193658, -1.2666944226910992, -0.5883986201397208, -1.4541652202606201, -1.154443621635437, -0.4215065836906433, -0.31582877039909363, -0.16165215573552566, -1.5678168535232544, -0.8633835911750793, -0.5394976735115051, -1.8706373487200054, -0.001737893559038639, 0.0, -0.5659968852996826, -0.3819116950035095, -0.4366619288921356, 0.0, -1.1343332386016847, -0.9143625497817993, -1.4121825695037842, -2.8265469074249268, -1.0038454890251158, -1.4065818786621094, -2.53775954246521, 0.0, -0.4338917136192322, -1.1464693546295166, -1.0385401974553647, -0.47040119767189026, -1.077906634658575, -1.3634653091430664, -0.43699586391448975, -0.5217200517654419, -1.3165086507797241, -1.5100021362304688, -1.0377483757174746, -1.5558571815490723, -0.4043563902378082, -1.169895128439401, -0.34705761075019836, -0.5157449841499329, -1.1571320295333862, -1.3184555768966675, -0.03920790948063494, -1.2440434694290161, -0.38754841685295105, -0.6019614934921265, -0.49195048213005066, -0.40508008003234863, 0.0, -1.3685028553009033, -0.8378447610504773, -0.7231456070411496, -1.6574889421463013, -0.37234562635421753, -0.3949894905090332, -0.6151326894760132, -1.0466128587722778, -1.0858825970051895, -0.5555236339569092, -0.9118397831916809, -0.4489574134349823, -0.2151301421783044, -1.350004526408943, -1.0273951292037964, -1.255278468132019, -1.1691637833913169, -2.3460946083068848, -0.711815595626831, 0.0, -1.9596835374832153, -0.8719989657402039, -1.2476072758436203, -1.0070931911468506, -0.3782382607460022, -0.5600355267524719, -1.1137839482483252, -0.9674257040023804, -0.7848015766965145, -0.41925305128097534, -0.8033650354905562, -1.4044556504693524, -0.9658176365183361, -0.6214846968650818, -0.3366759121417999, -1.2896697521209717, -0.5542049407958984, -0.40668928623199463, -0.9957315921783447, -1.2391861718276451, -1.2055351734161377, -0.5611310601234436, -0.06332658231258392, -0.002538326196372509, -0.6487016677856445, -1.4250588417053223, -1.4594254344701767, -0.17698387801647186, -1.2514928148147906, -1.3748661279678345, -0.42264851927757263, 0.0, -0.429905503988266, -0.7641662716865539, -0.8846184611320496, -1.1717066068564896, -1.2443767786026, -0.07688567787408829, -1.2689802646636963, -1.0904323514550924, -1.1302191257476806, -0.40174585580825806, -0.48133307695388794, -1.2027021377317366, -1.534988800684611, -1.9215796328773185, -1.269561217381404, -1.1944146156311035, -0.40931594371795654, -0.4465697109699249, -1.3209476470947266, -0.9764896221458912, -2.0281023641270917, -1.5205961465835571, -1.4393737468184256, 0.0, -1.5523901035388312, -0.3934032917022705, -0.4063403010368347, -0.4230972230434418, -0.4449200928211212, -0.4853806793689728, -1.249159574508667, 0.0, -1.2208810143798363, -0.6768505302018035, -0.9818083643913269, -1.145572543144226, -0.832765519618988, 0.0, -0.042001380611527785, -0.7128776907920837, -0.5871545672416687, -0.43071508407592773, -0.8506811857223511, -0.6305681467056274, -0.4968942701816559, -0.815533571605441, -1.0692391395568848, -1.0424099429961173, 0.0, -0.8299994385519693, -1.4192114935980902, -0.5321964025497437, -1.7776866332808539, -1.491804599761963, -0.8748861852898655, -0.34156179428100586, -0.5376139283180237, -0.6349785923957825, -0.5025951266288757, -0.06490824371576309, -1.0467350482940674, -0.992527961730957, -0.6637101173400879, -0.8246375864202327, -0.464422731457845, -1.5355377197265625, -1.1293390989303589, -2.0466949939727783, -0.06516440547242457, -4.384817600250244, -2.571718316329153, -0.5717709586991893, 0.0, -1.8618447035551071, -0.9121325016021729, -0.9872996807098389, -1.1962099075317383, 0.0, -0.6353648247257355, -2.0542232990264893, -0.7519704103469849, -1.5615535878709383, -0.6935890913009644, -0.9329863786697388, -0.3791089355945587, -0.40493011474609375, -1.1569712162017822, -0.4858715534210205, -0.9800294344542456, -1.5902626098842796, -0.7798840403556824, -1.1908687353134155, -0.7881368553196944, -0.4859922528266907, -1.2083828449249268, -1.0754727125167847, -1.4026682063610882, -1.372369647026062, -0.17943133753859652, -0.6777530908584595, -1.5835106372833252, 0.0, -1.1946619749069214, -0.5754986638608186, -0.5371078848838806, -1.1381378791315093, -0.5434013222748378, -1.8324909210205078, -2.1450281143188477, -3.13276743888855, -0.8993561863899232, -1.1817945168942823, 0.0, -1.3470071098777685, -0.5401356816291809, -1.1517721898853779, -3.204074974717765, -1.0266872644424438, -0.37384751439094543, -0.10135657899881126, -1.1248228549957275, -2.0794830083847047, -0.0578034408390522, -1.1546508073806763, -0.515310525894165, -0.8749254773247916, -0.8481878638267517, -0.7488488238684985, -0.16134862221434523, -0.4429313838481903, -0.7983404397964478, -0.7319967150688171, -0.446169912815094, -0.4381444752216339, -1.2001721858978271, -1.5309869050979614, -1.062199354171753, -1.2429823234899722, -1.2999837663438585, 0.0, -2.2115111351013184, -0.9637612807445037, -0.49029991030693054, -0.5265292510390281, -0.5307650437226167, -1.6884069588348156, -1.1556395292282104, -0.009030327200889587, 0.0, -1.284652829170227, -0.3988698720932007, -0.4430328905582428, -0.4768235981464386, -1.3843540911907917, -2.1584392432123423, -0.5448545813560486, -0.6664232611656189, -0.3303987681865692, -1.479499101638794, -0.4420146346092224, -0.655472457408905, -0.21340727806091309, -0.4858834445476532, 0.0, -0.6674457788467407, -0.5725419672708663, -1.1778515577316284, -0.9284817018816548, -0.38280022144317627, -1.4357657432556152, -0.38363784551620483, -2.173462390899658, -1.617419719696045, -0.727404847741127, -4.415231046542315, 0.0, -1.0685827732086182, -0.5507063269615173, -1.0832164257195345, -1.2432985305786133, -0.4081134796142578, -0.7167121767997742, -0.7671168446540833, -0.7783501148223877, -2.688232183456421, -1.09800386428833, -0.3979523181915283, -1.1997871398925781, -0.9741636929632743, 0.0, -1.210211992263794, -1.349728160434299, -1.6226302074349446, 0.0, -1.0434412275041853, -0.0018698376370593905, -0.5376914739608765, -0.505082905292511, -0.4243738055229187, 0.0, -0.5028794407844543, -0.43555623292922974, -1.1558044401265808, -2.3188560009002686, -1.3046937601281963, -1.1557377576828003, -1.2572050094604492, -0.4752941429615021, -1.3286914825439453, -1.7980883739612723, -1.4280335903167725, -1.1204988956451416, -0.5055478811264038, -0.5000127553939819, -0.7192453145980835, -0.6833378076553345, -0.2933771312236786, -1.3084515258148834, -0.8825278878211975, -0.9195534268090891, -1.246558666229248, -1.2903364896774292, -0.4072243571281433, -0.8783119297027588, -0.9987561006461624, -0.7420485019683838, -0.5016255974769592, -1.0501813888549805, -0.8129258155822754, -0.5187087655067444, -1.7931552947835718, -0.0537029467523098, -0.8852127978676243, -0.8319841723844229, -1.2749581770463423, -6.033061504364014, 0.0, -2.8612232093351433, -1.7050031423568726, -2.0724754333496094, -0.49724072217941284, -0.13355088233947754, -0.9494607399921029, -1.388991777561913, -1.0267452823449366, -0.47856056690216064, -0.07295975089073181, -1.208942966258272, -0.9523269534111023, -0.6768319855875043, -0.3978407680988312, -0.381250826242779, 0.0, -1.38861083984375, -1.8526665270328522, -3.2200982570648193, -0.23602717136269186, -1.3519215997722414, -1.1359907186256264, -1.3802170753479004, -1.1598576307296753, -0.7746956944465637, -0.9193117022514343, -1.2333561182022095, -1.2934974431991577, -1.3712518428856473, -0.8519551157951355, -0.32104114360279506, -0.4218120872974396, -1.358697772026062, -0.4807621240615845, -0.020035776009122687, -0.4387616813182831, -0.4141998589038849, -0.7971030601972267, 0.0, -0.3598586320877075, -1.2360000610351562, -1.0125964879989624, -1.999836802482605, -0.9224401116371155, -1.619316577911377, -0.7734338641166687, -0.6046815514564514, -0.36541303992271423, -1.2553926706314087, -0.44051459431648254, -1.141323208808899, -0.5223152041435242, -0.8497834422371604, -1.1975867967664098, -0.19523270428180695, -1.4985523903742433, -0.620048999786377, -1.0487298965454102, -1.1719156165621174, -0.5247291922569275, -0.46166470646858215, -0.5513139367103577, -0.5089203715324402, -0.4341820478439331, -1.5397809743881226, -1.2265610545873642, -1.5064256191253662, -1.231529712677002, -0.46834958263207227, -7.568593060013151, -0.49691975116729736, -0.7716635868356035, -1.5821878910064697, -0.5240150690078735, -0.8947910070419312, -1.3148602827460365, -0.6338055729866028, -1.8245062828063965, -1.097915530204773, -1.1941702848389035, -1.3530288934707642, -0.4238739013671875, -1.7631343603134155, -0.4652973413467407, -0.4140540301799774, -0.4482323229312897, -1.2058554887771606, -0.8678120374679565, -1.0264896154403687, -0.48679232597351074, -1.3310368029134614, -1.1454135179519653, 0.0, -0.4753176324853771, -1.1963008244832356, -1.6709054246240733, -0.7813209826058715, -1.4098550081253052, 0.0, -0.5331834548193476, -1.2124156951904297, -0.461577832698822, -0.5647512674331665, -1.0390655994415283, -1.5745259682963213, -0.388490891084075, -0.9834852814674377, -0.454958438873291, -0.5797057151794434, -1.2957740786463716, -0.935206413269043, -0.8168291049999196, -0.30241547621689835, -0.4482760429382324, 0.0, -0.9320411682128906, -0.4289599061012268, -1.0939776420593261, -0.9215891881727837, -1.0643326722342392, 0.0, 0.0, 0.0, -1.0381945371627808, -0.4279162585735321, -0.5642940402030945, -1.6940395832061768, -1.1988587612691133, -1.3077701355193878, -0.6185210347175598, -1.1678708791732788, -0.5300441384315491, -0.3720625340938568, -1.0903258187430245, -0.9322904369660787, -0.9990297283263917, -1.192718703900614, -0.9791498370468616, -1.9438294172286987, -1.1377540967966382, -1.3269140720367432, -1.064849615097046, -0.6699119806289673, -1.2967299355400932, -2.1215710846745237, -1.262725830078125, -0.47643721103668213, -0.6168649792671204, -1.4448084831237793, -1.310943672416407, -1.6046857833862305, -1.3431607484817505, -0.0814945176243782, -0.5751022696495056, 0.0, -0.9902880787849426, -1.5129798650741577, -0.4952530860900879, -1.1029212474822998, 0.0, -0.4664900048325459, -1.6245869289744983, -0.46879761992022395, 0.0, -0.8143277764320374, -0.45631277561187744, -1.256847620010376, -0.39159655570983887, -0.4164155351538812, -0.41450634598731995, -0.015501457266509533, -1.319991111755371, -2.1173696517944336, -0.7418966293334961, -1.1394343376159668, -0.40822434425354004, -1.694904238344675, -1.4870768785476685, 0.0, -1.871451735496521, -1.1710580587387085, -1.4859343602739532, -1.2297897772355513, 0.0, -0.6457843780517578, -1.541174428407536, -0.45141729712486267, -1.0293794057585977, 0.0, -1.051079253482211, -1.2308186208829284, -1.0692466497421265, -0.5398601293563843, -1.7299446401924923, -1.3240126371383667, -1.4724746481345516, -0.687751293182373, -0.4257672429084778, -0.34077805280685425, -1.1199959058028, -0.3609143513621706, -0.0905125590704255, -0.45700907707214355, -1.8175007104873657, -1.4311203956604004, 0.0, -1.4937822818756104, -0.436824768781662, -0.9814148545265198, -0.4015633761882782, -0.43091519081846197, -1.7240031957626343, -1.124430579108161, -0.4756358563899994, -1.4347519874572754, -0.5570503184571862, -0.4677684009075165, -0.49537208676338196, -1.2065906690996746, -0.9116736650466919, -0.38446858525276184, -0.41760602593421936, -0.2891926169395447, -1.325966477394104, -0.9044419527053833, -1.7665218114852905, -1.6367720365524292, -0.5145774483680725, -1.0431402288377285, -1.7227584757703416, -0.4597177803516388, -0.47711676359176636, -0.9968067407608032, -1.3980164527893066, -0.4034811854362488, -0.9038962721824646, -0.8412792086601257, 0.0, -0.5874265751036087, -0.9154875874519348, -0.46712663769721985, -0.23206184483781647, -2.879787560919641, -0.3652421832084656, -1.217421531677246, -1.1455364958213192, 0.0, -0.40278884768486023, -0.4929273724555969, -1.1659936649458749, -0.4114699363708496, -0.5956542491912842, -0.50754714012146, -0.8229163052284554, -0.3406713902950287, -1.1209700807125984, -2.5115249156951904, -0.45816487073898315, -0.936237633228302, -0.8513431549072266, -1.2349412958105128, -0.7305495783967791, -1.153199460304959, 0.0, -1.3125851256772876, -1.129994511604309, -0.9663823246955872, -0.4167200028896332, -0.3733625113964081, -0.8536532483994961, -0.40975138545036316, -0.7558333277702332, -1.299615740776062, -1.2514294215611048, -0.6572495102882385, -0.024677176028490067, -1.7367222309112549, -0.47664859890937805, -2.214115858078003, -1.1344809944813068, 0.0, -1.367289651523937, -1.1942173268673193, -1.149132333532737, -1.3992950916290283, -3.6728407859802243, -1.0498775243759155, -1.646187424659729, -0.8585604736881871, -1.0203448075514574, -0.07735875248908997, -0.3974382281303406, -0.8543474674224854, 0.0, 0.0, -0.7427234766673456, -2.354297300179799, -1.0063839692335863, -1.0510175228118896, -1.1841115951538086, -2.1805057781083246, -0.4351617991924286, -1.0458118601849204, -0.46940455906131723, -0.5703070163726807, -0.7509045004844666, -0.7058084912416412, -1.0226477856905956, -0.8776391744613647, -1.0772744925918092, -1.474714994430542, -0.7817358374595642, -0.45848891139030457, -0.9052394032478333, -1.3009740327085766, 0.0, -1.8550872802734375, -0.08023926615715027, -0.9568087458610535, -0.5984014868736267, -0.041405729949474335, -1.1946362257003784, 0.0, -1.15468168258667, -0.6535808237699362, -1.0478274452275242, -0.9491242170333862, -0.4390650689601898, -1.410657286643982, -0.4309799206458916, 0.0, -0.4500831961631775, -1.1713861227035522, -0.9733567919049944, -0.5962894660991859, 0.0, -0.5239211916923523, -1.0644399245008291, -1.6530101299285889, -0.5343884825706482, -1.018314465880394, -1.6258900506155831, -1.1151739358901978, -1.1389400959014893, -0.5407376289367676, -0.5649811625480652, -1.2152117490768433, -0.08749949080603463, -0.7003424167633057, -0.4529038965702057, -0.41962969303131104, -1.2081204652786255, -0.9809653815385458, 0.0, -0.45285624265670776, -0.8833498358726501, -1.2555673349844783, -1.0604731955311515, -0.4959082305431366, 0.0, -0.5448932412809927, -0.4108756482601166, -0.6220360398292542, -0.9722393751144409, -0.6288624405860901, -0.7325328588485718, -1.2677884101867676, -0.42607271671295166, -0.9773873090744019, -1.3676803478827844, -1.5484047929445903, -1.2397500276565552, -0.43808498978614807, -1.3036139202814032, -0.876529335975647, -1.1697306632995605, -1.0788335800170898, 0.0, 0.0, -0.28558637541119414, -0.11217295272009713, -0.3621842179979597, -2.609025239944458, -0.451293408870697, -1.0091455661697892, -1.2125391960144043, -0.8703343868255615, -0.7580636143684387, -1.1475570996602376, -1.438551425933838, -0.1471792459487915, -0.3377973437309265, -1.216125020980835, -0.581916093826294, -0.9613904356956482, -1.3051458597183228, -3.3187268376350403, -0.9499446153640747, -0.4096079468727112, -0.5850185509337935, -0.5531877875328064, -0.8812875747680664, -0.9899805081601174, -1.5490435508430982, -1.0544380893309913, -1.0701302748460035, -0.48355600237846375, -1.6780251264572144, -0.4488224685192108, -0.08815460652112961, -1.211921215057373, -0.38995224398535655, -1.2427257299423218, -0.5019971703489622, -1.1023839473724366, -0.4325060248374939, -1.1631029835947744, 0.0, -0.42902669310569763, -0.5226167440414429, -3.2878212928771973, -0.5500639081001282, -0.6588790416717529, -1.4292047719885832, -2.1256039142608643, -1.454899787902832, -1.6733501143753529, -1.1373960971832275, -0.04411495849490166, -1.2663807001980867, -0.6151195764541626, -1.6797642707824707, -1.1697053909301758, -0.5915115767336906, -1.3404545783996582, -0.8428848385810852, -0.7748051881790161, -1.4064643383026123, -1.3617223501205444, -1.1459747552871704, -0.6822729706764221, -1.1930372714996338, -0.4693320691585541, -1.7351655960083008, -0.5317813158035278, 0.0, -1.6948940119612108, -0.3532116711139679, -0.05879281088709831, -0.4751565754413605, -0.5711826682090759, -1.1793993996902252, -0.9436609745025635, -1.3948397636413574, -0.4454857409000397, -1.7466242889781576, -0.3484545946121216, -1.0826165676116943, -0.4511845111846924, -0.009947896003723145, -0.31545764207839966, -0.8761695623397827, -0.5757259726524353, -0.42787232995033264, -0.5332416892051697, -0.8905878067016602, -0.5658293962478638, -0.8148475289344788, -0.4341745674610138, -0.8275632858276367, -1.6858980655670166, -0.9123457234080246, -0.3802928030490875, -1.1499087093797928, -1.1330410242080688, -0.2391127347946167, -0.75313401222229, -0.555022656917572, -0.4357282817363739, -1.3723574645227665, -0.9390245676040649, -0.3667648434638977, -1.0820638384137835, -1.0880413055419922, -0.4107632739469409, -0.4647373557090759, -2.2368242740631104, -2.0580225035829365, 0.0, -1.6297385000413465, -0.5725388526916504, -1.4930544905706282, 0.0, -1.5740174853924622, -0.5269630551338196, -1.0156852006912231, -1.4242150783538818, -2.549804925918579, -2.417360305786133, -0.46645089983940125, -0.07427532180600803, -0.19202055829636594, -1.194345443337052, -0.4469758868217468, -10.057915378624285, -0.4757169187068939, 0.0, -1.4314942238852382, -1.1477493047714233, -1.1837785243988037, -1.200348737811254, -0.46391353011131287, -1.3308457136154175, -0.6781678336007254, -1.2221511602401733, -1.5537488460540771, -0.4962801241105603, -0.97409404407848, -1.3316248655319214, -0.5801590085029602, -0.4101666212081909, -0.0684538260102272, -0.4928109645843506, -0.4455633759498596, -0.45572593808174133, -1.2297892570495605, -1.3546476811170578, -0.9447790384292603, -0.4963946044445038, -0.24343449274698892, -0.622404932975769, -0.8901566152703272, -0.4674836993217468, -0.627540647983551, -0.45302334427833557, 0.0, -0.929350929971067, -2.6140191555023193, -0.0760368137824826, -1.4374828338623047, -0.2386455237865448, -0.5409189462661743, -0.9652656208385121, -0.6148443222045898, -1.3633599281311035, -0.676052451133728, -0.48019421100616455, -0.9108055233955383, -0.4061945378780365, -1.1962792873382568, -1.3176060914993286, -0.8346753716468811, -0.13984017074108124, -1.6836953163146973, -0.4985521733760834, -0.8804587721824646, -0.4398868978023529, -1.8394743404249203, -0.5832895040512085, -1.0706182582811876, -0.39944973587989807, -0.4279460906982422, -0.8072801764522279, -1.3892593773043886, -1.286978006362915, -0.5171066522598267, -0.4821105649915792, -1.801323590071305, -0.65777987241745, -0.4562681736967489, -0.2726115584373474, -1.9814573526382446, -0.9709011316299438, -0.3659361004829407, -1.3339085852334258, -1.6110179424285889, -0.09006029318186863, -1.5427155434075048, -0.5399007797241211, -0.9858597218990326, -1.365100383758545, 0.0, -0.6358512043952942, -2.4892170792040615, -1.1888138055801392], "high_level": [2.16007399559021, 2.932955848636912, 1.7043492794036865, 0.0, 1.7806841135025024, 0.0, 1.5896634973110038, 1.1260215152393687, 0.0, 0.0, 0.0, 2.631853610277176, 0.7350431680679321, 0.0, 2.1716415882110596, 0.902900218963623, 0.0, 0.3119732134181297, 1.228216960545509, 0.0, 1.501659870147705, 1.4803513288497925, 0.0, 1.25630784034729, 0.7723786558013365, 2.2024641036987305, 1.531732223535839, 0.0, 0.0, 1.120945480736819, 1.1245700120925903, 1.021047592163086, 1.4191137552261353, 0.198866069316864, 0.0, 1.4626591205596924, 0.7271764278411865, 0.6024081110954285, 0.0, 1.0261721081203885, 0.0, 1.64847211866844, 0.9231188893318176, 1.3936149809095595, 2.2817994909627095, 0.0, 1.6368076801300049, 1.79264235496521, 2.2449681758880615, 0.3961978197097778, 0.0, 0.0, 1.8708444833755493, 1.0907050371170044, 1.2647257697916476, 1.445805964015779, 0.03364936794553484, 1.4340649843215942, 1.2502950032552083, 1.360606019755444, 0.812939465045929, 0.0, 1.0852076333897716, 0.8530865907669067, 0.0, 0.6508115530014038, 1.3959287688845678, 0.0, 0.0, 1.369168996810913, 0.8965637683868408, 1.4124908447265625, 0.8931772708892822, 2.050664550491742, 1.2359375953674316, 2.1112671320637064, 0.0, 2.085380800477751, 1.135604073531436, 1.62712824344635, 1.2736635520344688, 0.0, 0.0, 0.0, 0.0, 1.1866357326507568, 0.9123352368672688, 1.1403998136520386, 0.6738402247428894, 2.3298665318848952, 0.0, 0.0, 5.659220743179321, 1.0063585180502672, 1.2025476694107056, 1.5908176790584219, 0.9785597673276576, 2.41314609721303, 1.7440907955169678, 1.8672959804534912, 0.9724961528341279, 1.5281650916389797, 2.80599308013916, 1.3468320899539523, 0.0, 1.518663763999939, 1.9141095017277916, 1.3079984486103058, 1.841129183769226, 2.4170236587524414, 0.0, 0.0, 2.6232542991638184, 1.4750847367957087, 3.5657289028167725, 0.2406823072168562, 1.472835898399353, 1.1720637083053589, 3.5949878692626953, 0.0, 0.0, 0.9174831793612281, 1.5550825204422225, 0.0, 1.5433839678764343, 1.6334726810455322, 1.5891145467758179, 0.0, 1.0132253170013428, 2.207651138305664, 1.0221965674198035, 1.1161300018950775, 2.457979679107666, 1.9721060693264008, 1.5478990077972412, 1.4524795384176314, 1.6108490734730128, 1.5471583604812622, 0.0, 1.0916661024093628, 1.3488241882607488, 0.9324144124984741, 1.4447425310894595, 0.9034067150205374, 0.0, 0.6583742499351501, 1.6145987510681152, 0.0, 0.0, 1.864188313484192, 1.9913368225097656, 1.7351577281951904, 2.000520706176758, 1.3227401528476685, 0.0, 0.0, 1.310627743601799, 1.6446141004562378, 2.0122578144073486, 0.746959510602449, 0.8984625935554504, 0.9585978388786316, 2.013911485671997, 0.0, 0.0, 0.0, 0.0, 0.0, 1.2011149754891028, 2.04890513420105, 1.2898017168045044, 1.284477710723877, 1.3150827633131534, 1.2102419609023678, 0.9822362539095757, 3.201439380645752, 1.2967926263809204, 3.326762557029724, 0.0, 0.0, 1.408940713852644, 0.28303911130536685, 0.0, 1.328394889831543, 0.7730309995445046, 1.615735411643982, 1.2974646091461182, 1.719998836517334, 1.5966129302978516, 0.0, 1.9686777591705322, 1.1317138343021786, 1.631810188293457, 0.0, 0.0, 1.1060917415926534, 0.0, 1.0385318994522095, 1.5960118558147167, 1.308332313190807, 0.0, 2.864530563354492, 0.10221744328737259, 0.7677688598632812, 1.396814148677023, 1.6287079881614364, 1.5965279340744019, 4.350561212748289, 1.5269577503204346, 0.871809184551239, 1.9722861051559448, 0.02216481789946556, 1.0261490643024445, 3.7629157642148576, 0.9826009954724992, 2.0016732215881348, 0.9848154783248901, 1.1013606844178165, 1.0742434433528356, 1.2230349779129028, 0.0, 1.3994795680046082, 0.010700655440168995, 0.0, 1.2812739088515606, 0.0, 2.490908145904541, 1.1872508525848389, 1.078718111893841, 2.039679429632552, 0.3668912947177887, 0.0, 1.5676317988215267, 1.2099068015813828, 1.6285215616226196, 2.2354062291764722, 3.08878231048584, 1.5379781677172735, 1.126524345986795, 1.4286396503448486, 1.5747816941954873, 2.4818379878997803, 0.0, 1.3638031482696533, 0.9000084400177002, 1.1438478360510176, 0.5898827314376831, 0.7264388264089391, 1.3712955713272095, 1.6085536479949951, 0.8670426607131958, 0.7221905589103699, 0.0, 1.9398268461227417, 0.9433317184448242, 1.6447949032394253, 0.0, 1.0734583139419556, 2.210407703421837, 2.9706900119781494, 1.5799607162674267, 1.3196009227207728, 0.0, 0.6224302053451538, 1.0004267111802714, 2.487701177597046, 2.4101450443267822, 0.0, 1.5688317944837171, 0.0, 0.0, 0.0, 1.8602668881416322, 1.695473101513445, 1.2931122572525688, 1.37652587890625, 1.4624817371368408, 1.712863564491272, 3.3720070772831985, 0.8171019554138184, 2.114418363198638, 0.12842176854610443, 1.4027361869812012, 1.7837202548980713, 1.3000944703817368, 1.1423363909125328, 1.8562712669372559, 1.1600223308178916, 0.0, 0.0, 0.0, 1.7675235271453857, 2.1754348278045654, 0.0, 1.2217759788036346, 1.2298176371388965, 1.6128965616226196, 0.0, 0.0, 2.1526299352231235, 0.0, 1.421478509902954, 0.0, 1.6395519971847534, 1.11491292487574, 1.439146637916565, 0.0, 2.0510939189365933, 0.0, 0.5433655977249146, 1.8195971846580505, 1.2251029014587402, 1.7037032842636108, 1.3294459581375122, 1.5514999880240514, 0.0, 1.7353569269180298, 1.8051738280516403, 0.0, 1.2070941925048828, 1.7090198058116284, 0.9781036841130889, 2.5445861889205816, 1.0724688907002293, 0.0, 2.3577212400214616, 1.5867820978164673, 1.937707543373108, 0.9035144325805037, 1.5184441804885864, 1.9138715267181396, 1.4089280366897583, 1.4202394485473633, 2.1813812255859375, 0.0, 0.0453279530390715, 1.1215593431677138, 2.099186897277832, 0.0, 0.0, 2.6227869987487793, 1.2866822931824662, 0.9740521907806396, 1.4294651213445162, 1.0658912036729895, 0.0, 1.5185045514787945, 0.8370411396026611, 1.0661346667433438, 1.5251234968503318, 0.0, 0.0, 0.08871748373897065, 2.5435351729393005, 1.265188878402114, 1.6706122159957886, 1.6747972416606816, 0.9414475560188293, 0.03518512364356748, 1.521935346799019, 0.0, 0.8445307016372681, 0.7947847843170166, 0.9626575160670925, 0.9519485770301386, 2.7754793848310197, 0.0, 0.0, 2.2178499698638916, 2.2286722902208567, 1.8020403385162354, 0.4014807343482971, 1.6278483867645264, 6.0805659256582185, 2.2138822078704834, 1.380706548690796, 1.5887529281052675, 1.1697407353875096, 0.0, 1.176275079066937, 1.2923215627670288, 1.2542388439178467, 1.758574366569519, 0.0, 1.2559499974761692, 1.4952715635299683, 5.274426203507644, 2.5193190574645996, 0.0, 0.047026533633470535, 1.665154218673706, 1.5138134565509733, 2.117333173751831, 1.8174787708586708, 0.8785455822944641, 0.9932485222816467, 1.8814846277236938, 1.5285048603026337, 1.8581392655567246, 1.4202754398187, 2.165220982934299, 2.261152883370717, 2.3311382492819988, 0.975521445274353, 0.9142932949996576, 1.778074026107788, 0.0, 1.5527974537440707, 0.0, 1.2572449445724487, 0.04142814158370055, 0.0, 1.298374056816101, 1.1167014837265015, 0.04438784889187582, 2.0471251010894775, 1.313638687133789, 0.6288146646981386, 1.4777867094594603, 2.1345536708831787, 1.2187442707292961, 0.0, 0.0, 0.8930981415230156, 0.0, 1.5287448484963233, 0.0, 1.5579363107681274, 2.1218113899230957, 1.081288823714623, 1.5103520154953003, 0.0, 0.889140564462413, 1.2978239059448242, 0.0, 0.0, 0.0, 0.0, 0.0, 1.2059823016186695, 1.401784062385559, 1.5914657750437335, 1.5723995438643863, 0.015169217251241207, 8.787264823913574, 0.0, 1.067347764968872, 0.0, 0.0, 3.4931264313367696, 1.0463324785232544, 0.0, 1.596442997455597, 0.9759249157375759, 1.1663988828659058, 1.475023301898456, 0.0, 1.471392703570908, 0.0, 0.04500587284564972, 0.0, 1.539619061563696, 0.8884742288362412, 1.0184701653197408, 0.833761324273779, 1.0424903631210327, 1.2486885072755032, 1.606459140777588, 0.08323534578084946, 1.3458384275436401, 2.2742879390716553, 0.9071269035339355, 0.0, 1.443984031677246, 1.381771206855774, 1.2029436975717545, 0.0, 1.758016042170986, 1.637315490029075, 1.5622249841690063, 1.1839722394943237, 1.2358841590121783, 0.0, 0.40579400062561033, 2.685218572616577, 1.1206352710723877, 2.036478042602539, 2.9107489585876465, 0.0, 1.9397424459457397, 1.1168424343240673, 0.0, 1.0519015789031982, 1.1581032276153564, 0.8882200717926025, 1.4208792448043823, 1.3594571352005005, 0.8312269449234009, 1.4130981200271182, 0.0, 0.0, 1.040011642854425, 1.4140385389328003, 1.669742226600647, 0.7650128587296134, 1.6153728048378062, 0.0, 0.0, 2.385087728500366, 1.8002849817276, 0.5832844376564026, 1.1289856433868408, 1.6490944623947144, 0.0, 0.9198862910270691, 1.379990634918213, 1.7059325466350632, 0.0, 1.458821177482605, 1.324292778968811, 1.8940887451171875, 0.0, 0.0, 1.1868069682802473, 0.9787182211875916, 1.6173211045152558, 2.2246099896728992, 1.5170517896230404, 1.0913872617212208, 2.0235841274261475, 1.4378221143896763, 1.1295534609115288, 0.0, 1.6276119380321317, 1.1976304054260254, 0.1835370510816574, 1.0309878587722778, 0.0018456599209457636, 1.934234619140625, 1.1446682895129583, 0.0, 0.9688200404246649, 0.0, 0.13377079367637634, 0.0, 1.960934344213456, 4.913300249311659, 1.0586848258972168, 2.3594745260770202, 1.242170220515767, 0.0, 3.1612820625305176, 1.4987861453078863, 1.2181379795074463, 4.02015557995549, 1.3596182546373141, 1.2400603294372559, 2.2546145915985107, 0.5896540880203247, 0.0, 1.5778690576553345, 0.0, 1.1046998500823975, 1.294922113418579, 1.683871865272522, 1.240510106086731, 4.383911263942718, 0.0, 0.8958641886711121, 1.1225324532260066, 1.7095680236816406, 1.0149339472205894, 0.0, 0.0, 1.7648420333862305, 0.22904179990291595, 1.1242612600326538, 0.0, 1.565438568157001, 1.6615550356396174, 2.977353811264038, 1.307059496641159, 0.02346579336430416, 1.7992605666319528, 0.0, 0.09737025946378708, 1.1306774205975718, 0.866748571395874, 0.0, 2.6303786436716714, 0.12917108833789825, 0.0, 0.0, 1.2353190183639526, 1.588076706855528, 0.0, 0.0, 1.75925508638223, 1.4008194236986098, 0.7197319764486502, 1.1776812076568604, 0.8183860182762146, 0.0, 1.051353931427002, 2.1307802200317383, 3.5826282192920815, 0.0, 1.2328925477830988, 1.997166361127581, 0.0, 1.5481627640572, 0.0, 1.277477741241455, 2.2388710975646973, 1.1876595729106183, 0.0, 3.05548095703125, 3.6188480854034424, 0.0, 0.880162864118009, 1.3299872875213623, 0.8206440210342407, 0.0, 0.0, 1.4194705486297607, 0.0, 0.0, 0.0, 1.102254867553711, 0.0, 2.12729549407959, 3.47388493012045, 0.0, 1.0047428259035436, 1.1044451739336993, 1.576755404472351, 1.2099727392196655, 1.4491533041000366, 2.335897207260132, 1.3229204416275024, 1.1211664294824004, 0.6234724675455401, 0.0, 0.0, 0.860374927520752, 0.0, 1.4097565439309967, 1.8869420851652439, 1.0950007438659668, 0.0, 1.5484927957877517, 0.8683611154556274, 0.0, 1.761937267343763, 1.179860234260559, 1.4091229438781738, 1.2346421480178833, 1.3865065574645996, 1.3341621160507202, 1.2835639186371537, 1.5303503274917603, 1.0748746082896277, 1.6853823633421035, 2.314380407333374, 1.3027616739273071, 1.8952894359827042, 0.0, 1.2009223834523615, 1.854528546333313, 1.8404158353805542, 1.3159122467041016, 1.284162163734436, 0.853238582611084, 1.6837729702190476, 1.4645590782165527, 4.210631847381592, 0.0, 1.5433340072631836, 1.4612109661102295, 0.0, 0.7450380590744317, 1.2720065116882324, 1.6937603950500488, 1.1755533896454977, 1.7258377075195312, 1.6853885650634766, 0.0, 0.0, 1.1743646312404323, 1.5837944746017456, 1.5077000856399536, 1.7016590089726267, 1.4936848007715666, 0.648363821208477, 0.0, 2.5982095543295145, 0.8227958110784063, 1.6967337131500244, 1.0591816938013061, 0.035109713673591614, 2.2508885860443115, 1.0185723304748535, 0.0, 1.663852184246748, 5.353224277496338, 1.0221951007843018, 0.0, 1.2570973024135683, 0.8516871929168701, 1.4584918022155762, 3.8998398780822754, 0.0, 1.2754926681518555, 0.769504715656412, 0.0, 1.321056604385376, 1.1381230354309082, 1.4467121330467432, 1.3865357689235522, 0.0, 0.0, 1.4793882162674614, 1.2249928712844849, 0.9085523244496939, 0.06499069367823579, 0.0, 1.4026483368065399, 1.3568493127822876, 1.2719948291778564, 0.0, 0.9937685653567314, 1.85287606716156, 1.1380687952041626, 0.0, 1.0396482944488525, 2.1271793842315674, 0.0, 0.0, 1.877427758841679, 2.3407657510704465, 1.791735776372858, 2.1714248302135064, 0.0, 1.1347632317219751, 1.1595550775527954, 1.137603521347046, 0.9709930286540852, 0.0, 1.5135178565979004, 1.2935190200805664, 1.2553207118336749, 0.6623218814028969, 3.104193925857544, 1.118027687072754, 1.0884612798690796, 1.5704213380813599, 2.6170730590820312, 0.6522563099861145, 0.0, 1.465201735496521, 1.5983471220189873, 1.1657689951975412, 1.343090968935386, 1.7213356494903564, 1.6183703541755676, 1.0256553702056408, 1.2283539772033691, 1.1693509817123413, 0.0, 2.264327473546329, 1.1972014653055292, 1.2068097591400146, 1.3570637362343925, 0.0, 1.2123275995254517, 0.0, 1.0560256283858727, 1.437375545501709, 1.4209271669387817, 1.367919683456421, 1.3663270473480225, 0.0, 2.108668742981632, 0.0, 1.7851307820528746, 1.4294455357086964, 2.6233150959014893, 1.3128796017939044, 0.1348649114370346, 1.059984564781189, 0.0, 1.4850332736968994, 1.7516000270843506, 0.0, 0.0, 1.7933570688421074, 0.0, 0.0, 1.65933096408844, 2.2811359079872693, 1.8874375626847553, 1.0103245973587036, 1.429294210619631, 1.3620493435300887, 2.321697950363159, 0.8931063081209476, 1.8312184263448246, 2.1080404847532836, 0.7316064238548279, 3.1571232833360368, 0.0, 1.0545959505769942, 1.4399515844526745, 1.15450373162394, 0.9119376573764103, 0.0, 1.6770052212589193, 0.0, 2.0145566665520103, 0.0, 1.872911810874939, 1.2653660774230957, 0.0, 1.3041314414956353, 0.0, 0.0, 1.4820771217346191, 1.4154914617538452, 1.3411920804243822, 0.0, 0.9691634774208069, 0.0, 0.0, 0.0, 1.2584088444709778, 1.5998208991118839, 1.783630894763129, 0.0, 0.0, 0.0, 1.8789230556022831, 0.0, 1.1830959314337144, 0.0, 0.7957339286804199, 0.9678303709736576, 0.8501403331756592, 0.0, 2.0373382568359375, 1.315479833190724, 1.6085765795274214, 1.0250990721914504, 0.0, 0.0, 1.6444628238677979, 0.9613822954041616, 0.0, 2.3670146465301514, 1.3457352989598326, 0.027498796582221985, 0.0, 0.20074063998002273, 1.4640965461730957, 1.478319525718689, 2.526094675064087, 0.0, 1.1146776676177979, 1.3369568586349487, 0.9663271903991699, 0.0, 2.7379340192546016, 2.358856223523617, 1.4637769019162212, 0.9696005622109215, 0.023034612337748207, 2.293250560760498, 2.2562415599823, 2.080472707748413, 0.0, 3.8810434341430664, 0.0, 1.5477948188781738, 1.4427658319473267, 1.3972600231999937, 1.1930996151421014, 1.0838969945907593, 0.0, 1.2207757673765482, 1.483492136001587, 1.511608013981267, 1.1415297644478934, 1.3377985954284668, 1.7858390808105469, 1.4746919998452683, 1.0278904172389405, 0.0, 2.113511878065765, 0.0, 0.0, 0.0, 1.042647413585497, 1.5481687784194946, 0.9373979521915317, 0.0, 1.825758695602417, 0.0, 1.1923198699951172, 0.0, 0.0, 0.0, 4.933095932006836, 1.5917606353759766, 0.6535047888755798, 2.0783395767211914, 1.1807894706726074, 1.3627915437284268, 1.227469916527088, 2.654480457305908, 1.7606905590404165, 1.5337799191474915, 0.6603303011073622, 0.0, 1.2598057706779409, 0.0, 1.0802223415517096, 1.529763004537356, 0.0, 1.4810345355759968, 0.9996940940618515, 0.0, 1.5599432594102363, 0.0, 2.1356608867645264, 2.2231033927989454, 1.1489561796188354, 0.0, 0.0, 0.982775866985321, 1.8909363746643066, 1.5421546800383206, 0.0, 1.094020128250122, 2.124638080596924, 0.31178005513428264, 3.1796188354492188, 1.0642335838996446, 4.8465375787503016, 1.5554232414887874, 0.0, 0.9958632588386536, 0.8198079470346666, 1.6765069961547852, 1.3287622928619385, 0.0, 1.1266968250274658, 1.5601147242954798, 1.0174809694290161, 0.0, 2.935999631881714, 1.5670727437192742]}, "Conv_123/WithoutBiases/fq_weights_1": {"low_level": [-0.3240997791290283, -0.41115230321884155, -0.28335669849600115, -0.2818799316883087, -0.4386456608772278, -0.4439939260482788, -0.37890347838401794, -0.359330337216605, -0.3169945478439331, -0.5660183429718018, -0.2489530235528946, -0.3388787508010864, -0.3542128801345825, -0.27288909209892154, -0.40738895535469055, -0.6587604284286499, -0.37844035029411316, -0.31867551803588867, -0.4990151524543762, -0.3790552636324349, -0.3984954357147217, -0.5161541700363159, -0.3599957525730133, -0.4094050867903617, -0.34506335625281703, -0.42189937829971313, -0.3510854244232178, -0.3738893100193568, -0.28841743080152404, -0.31426456570625305, -0.33656858652830124, -0.3674487374549688, -0.3856150558654298, -0.42658716440200806, -0.37377300777950806, -0.6061614896311904, -0.3446401160533034, -0.44991235971450805, -0.35524422561718244, -0.31362324953079224, -0.24811936914920807, -0.4765508472919464, -0.4743257462978363, -0.34489747881889343, -0.3358890699415371, -0.3392011225223541, -0.3105199635028839, -0.32178961113095284, -0.40670251846313477, -0.3945104777812958, -0.2434801310300827, -0.3763006329536438, -0.26003536581993103, -0.3585279254203147, -0.5115929987541465, -0.6229097252049722, -0.40752145648002625, -0.2549976440130082, -0.3824554681777954, -0.355719655752182, -0.29004475474357605, -0.47417838791651384, -0.26050675484784847, -0.3534318208694458, -0.20678343375523883, -0.28679585456848145, -0.36834541915870106, -0.36215734481811523, -0.31624361872673035, -0.43168848752975464, -0.5877386927604675, -0.5764018893241882, -0.4437713921070099, -0.3465953469276428, -0.31398099660873413, -0.5799566507339478, -1.2528499584448964, -0.4074043333530426, -0.2561530495478102, -0.23682982177662668, -0.4050740899896263, -0.6692879337125119, -0.6649192847496223, -0.3445400661892361, -0.35691403705655167, -0.32380334954512746, -1.044262755934785, -0.4800444671085902, -0.33812248706817627, -0.3995784819126129, -0.46952006220817566, -0.36868613958358765, -0.38734006881713867, -0.34417451868121257, -0.404812185951833, -0.35296156252030847], "high_level": [0.316562574963237, 0.6697119990574945, 0.43204882740974426, 0.22077309335028375, 0.4490896051838284, 0.7232066011920417, 0.2874440180844274, 0.397936075925827, 0.23666031311636102, 0.45042304757615215, 0.35564717650413513, 0.38729000091552734, 0.3148558934529622, 0.27503782510757446, 0.4371979033074728, 0.4537157917654277, 0.43250325747898644, 0.35850995779037476, 0.38465751335024834, 0.8601638674736023, 0.34868350625038147, 0.5121217155829072, 0.20318778672832652, 0.3875284790992737, 0.6780896186828613, 0.4746368005871773, 0.3594446011951991, 0.40760064125061035, 0.21189852058887482, 0.3320053073187028, 0.3846498131752014, 0.3761975169181824, 1.082024335861206, 0.43674400164967486, 0.2881166934967041, 0.3846794068813324, 0.34194761514663696, 0.432608038187027, 0.3059767782688141, 0.42687608963913387, 0.2704907876790547, 0.37922708270415456, 0.4216228855980767, 0.336876607218454, 0.2803103029727936, 0.3697848302907631, 0.3493349589407444, 0.3677595555782318, 0.5447575017946575, 0.450869117464338, 0.24539729741614635, 0.3140350605944078, 0.2385286814288089, 0.4434424340724945, 1.0601686239242554, 0.5624781847000122, 0.34550732179828314, 0.20292066037654877, 0.5376024977216181, 0.34203813053094423, 0.3947831384009785, 0.37138447165489197, 0.4173424541950226, 0.7194862067699432, 0.3101751506328583, 0.25094637274742126, 0.3378807604312897, 0.40742701292037964, 0.3447573876283208, 0.3898082611276143, 0.7385742864777556, 0.512357234954834, 0.35314202329642336, 0.4024030722803989, 0.3588354246956961, 0.3560493362100819, 0.36066892743110657, 0.4656049524034772, 0.2313023805618286, 0.2581833302974701, 0.4415971636772156, 0.5326023697853088, 0.6004121899604797, 0.3876075744628906, 0.3770624101161957, 0.3529987335205078, 0.4949684739112854, 0.4200389087200165, 0.3053195592182786, 0.2935678642623279, 0.562614557301176, 0.3175544851887835, 0.3181721993855067, 0.4837924838066101, 0.9357995986938477, 0.4229453206062317]}, "Conv_57/WithoutBiases/fq_weights_1": {"low_level": [-0.10124634206295013, -0.09384729735779039, -0.07418366421300632, -0.06697019934654236, -0.059640211998111134, -0.05903515057398541, -0.06410862718309675, -0.10846225917339325, -0.1463303051211617, -0.11256258934736252, -0.055756631887183994, -0.11843226104974747, -0.047083729505538935, -0.052086636424064636, -0.04127328830664275, -0.0769679144937165, -0.07077835500240326, -0.10934167355298996, -0.050280481738888695, -0.08503344655036926, -0.09334193915128708, -0.08863487839698792, -0.02028935816552904, -0.1646938920021057, -0.10073158144950867, -0.047992460429668427, -0.045145172625780106, -0.1261541023850441, -0.11176442354917526, -0.08247034504728497, -0.08723096241769583, -0.11493870047362229, -0.09521769732236862, -0.07843150304896492, -0.06798263639211655, -0.07498446618443105, -0.10869022458791733, -0.06748295947909355, -0.1040112423534329, -0.06601454317569733, -0.07349853217601776, -0.05323268986254368, -0.0952429547905922, -0.15271036805851118, -0.09327318840218286, -0.0684916664814127, -0.11901345103979111, -0.10316149890422821, -0.07198937032371759, -0.07379638282365576, -0.09846431016921997, -0.09984393248503858, -0.07398692753939135, -0.06648393720388412, -0.03830675825928197, -0.0612172968685627, -0.07738031552532526, -0.13985608518123627, -0.0671321302652359, -0.0934273824095726, -0.06767834497870301, -0.03817760548760406, -0.13167257347193204, -0.10044398717582226, -0.06839784234762192, -0.10707927495241165, -0.07040680944919586, -0.0757608488202095, -0.1056843027472496, -0.09379741549491882, -0.08377618342638016, -0.07276579737663269, -0.08629482948820885, -0.08338350057601929, -0.09216606616973877, -0.0402229820293459, -0.02998579852283001, -0.0988345742225647, -0.022907914593815804, -0.15342746675014496, -0.09119928628206253, -0.12432827055454254, -0.15684249997138977, -0.04820063340594061, -0.09660857915878296, -0.032302731906788215, -0.07639746864636739, -0.10376780480146408, -0.09406440849784467, -0.09412526339292526, -0.06932733318125699, -0.08446412705458128, -0.12693862033926923, -0.10539932851191168, -0.06275040656328201, -0.050046783588502716, -0.10439443029463291, -0.07621232717315111, -0.13289198279380798, -0.15913620591163635, -0.15643638372421265, -0.053395118564367294, -0.13503699004650116, -0.07804850488901138, -0.08797191083431244, -0.08435990980693273, -0.06736635770240838, -0.06531653532741266, -0.08415940403938293, -0.07598287353323678, -0.05600030720233917, -0.037000373005867004, -0.09375394135713577, -0.06920321415299954, -0.09902590646275451, -0.06786246597766876, -0.12865982949733734, -0.10478631280741449, -0.038582053035497665, -0.06228849600101339, -0.0659804493188858, -0.08249597748120627, -0.1265950035303831, -0.06727942642364794, -0.06899361405521631, -0.1394659074610227, -0.060461729764938354, -0.09494882276547806, -0.09248860033168908, -0.12037088828427452, -0.08563627856406006, -0.05589182846821271, -0.09870006144046783, -0.059942714869976044, -0.09896591305732728, -0.06428133005119231, -0.12902405858039856, -0.10060799273196608, -0.11089837551116943, -0.03183790960941802, -0.08382578939199448, -0.07759227603673935, -0.0462346865699209, -0.09200825542211533, -0.09560822695493698, -0.08214577078363117, -0.1040795846861236, -0.11004221439361572, -0.10624641925096512, -0.04921673543073914, -0.07596351951360703, -0.060262471437454224, -0.10146720915339713, -0.10956305265426636, -0.07620270643383265, -0.08658359944820404, -0.06278343350926707, -0.151604068973525, -0.035592444241046906, -0.08420449146820652, -0.12629035115242004, -0.13710664212703705, -0.07876046746969223, -0.0853351578116417, -0.06876459478267602, -0.15383407473564148, -0.12977613108914074, -0.1175018921494484, -0.04864770174026489, -0.07895620515311721, -0.057720813900232315, -0.052721456259111815, -0.07641219347715378, -0.07677247375249863, -0.14546339213848114, -0.1228794561965125, -0.1797555978618451, -0.09872833406552672, -0.12425515800714493, -0.1041104793548584, -0.06806732714176178, -0.09114668518304825, -0.05920841172337532, -0.09796324067495085, -0.08053009276804717, -0.06533421025328014, -0.09788458891536879, -0.06723265665081832, -0.08414079248905182, -0.08002050966024399, -0.10979483287725876, -0.06351265077327574], "high_level": [0.17636459585159056, 0.05955693870782852, 0.05109338462352753, 0.13394039869308472, 0.06924329698085785, 0.038717858493328094, 0.056095048785209656, 0.06770255668148113, 0.09286346286535263, 0.0691048808018618, 0.0923469215631485, 0.07767310627288633, 0.06726247072219849, 0.036460645496845245, 0.037859708070755005, 0.10476188361644745, 0.07133566488431195, 0.09719259871376885, 0.059305183589458466, 0.16420251747657513, 0.11729695008391827, 0.05908991893132527, 0.02282552793622017, 0.115285724401474, 0.0618415405101414, 0.03469725179712515, 0.09029034525156021, 0.08410273492336273, 0.06748040667120016, 0.13659150898456573, 0.10288780182600021, 0.0929291620850563, 0.07457609860213486, 0.11958862841129303, 0.0955604983247676, 0.026723187416791916, 0.1045098313345359, 0.11755096167325974, 0.14386601746082306, 0.09741952002627179, 0.07178926398587782, 0.03787023574113846, 0.06775673293827364, 0.07501561939716339, 0.10829175263643265, 0.035468898713588715, 0.12377398908138276, 0.12759448548680857, 0.04644475504755974, 0.07555343955755234, 0.1603851650179047, 0.10714958608150482, 0.05263499543070793, 0.044322624802589417, 0.1330655813217163, 0.06886945897713304, 0.07677578181028366, 0.06992804259061813, 0.08709033115490063, 0.06330934465911828, 0.0810973271727562, 0.030380770564079285, 0.055905673652887344, 0.10779354721307755, 0.058912010197221795, 0.0725602981585421, 0.07920766063034534, 0.08658382722309657, 0.10322652826475542, 0.0901898225912681, 0.16755236685276031, 0.1405132638997045, 0.11558756977319717, 0.0741186671786838, 0.13824909925460815, 0.04316612705588341, 0.01810463307038793, 0.0404075054832585, 0.042727121601948574, 0.07536787840357997, 0.07257407992868357, 0.11768477518139905, 0.15319499997205513, 0.04858016595244408, 0.11576372847474854, 0.023732619360089302, 0.07462078332901001, 0.09370077896251608, 0.11271511018276215, 0.1260760408749274, 0.08711930364370346, 0.07161089032888412, 0.10427100956439972, 0.1345723569393158, 0.05666268055341137, 0.018565742298960686, 0.11930792033672333, 0.13502836227416992, 0.09302438795566559, 0.09933342789388766, 0.046057412467027076, 0.03223856215207082, 0.09002466003100076, 0.06937644879023233, 0.06567765945849353, 0.14448878169059753, 0.07821348309516907, 0.048763714730739594, 0.11455029994249344, 0.06544510275125504, 0.04386038046616774, 0.07144899614926042, 0.0873616271736947, 0.02567216008901596, 0.12055327743291855, 0.09694637996809824, 0.08300634161118538, 0.09025390446186066, 0.027893781586474667, 0.13380491733551025, 0.09425778474126544, 0.10702180862426758, 0.08167419582605362, 0.07107745856046677, 0.07884984463453293, 0.05593962222337723, 0.044420862684444506, 0.0743655115365982, 0.029711363837122917, 0.08425962179899216, 0.11845017969608307, 0.08807197213172913, 0.09053689846418854, 0.08425909920402293, 0.13688743114471436, 0.031019479036331177, 0.10938996270946834, 0.10140018165111542, 0.09857633378770615, 0.07093002647161484, 0.05773431852163858, 0.057928480054825954, 0.060945723205804825, 0.1252334587689903, 0.1365831813641957, 0.05127570405602455, 0.14166387915611267, 0.10580982153232281, 0.05895380580388919, 0.03733683377504349, 0.13690128791463244, 0.13182415626943111, 0.10388309508562088, 0.09586767107248306, 0.06773573905229568, 0.07112224240388189, 0.05669250339269638, 0.07988717406988144, 0.041323431025622255, 0.07970501482486725, 0.07753268393534649, 0.11441993155925394, 0.08860552590340376, 0.0960020525380969, 0.08371341973543167, 0.11670171186841767, 0.12092775851488113, 0.06409194117242639, 0.08767278115827959, 0.0916694924235344, 0.14118199075597365, 0.023664744570851326, 0.045369739877060056, 0.14825029414275598, 0.04573848928065644, 0.08601561933755875, 0.06406183540821075, 0.0995057225227356, 0.13760488572692084, 0.09254264831542969, 0.062437698581164935, 0.21875204443931578, 0.09027817233069109, 0.07431694120168686, 0.06614971905946732, 0.07706086337566376, 0.08040519803762436, 0.06992196291685104, 0.0861441446911721, 0.10055674665269598, 0.12159097194671631, 0.13161657750606537]}, "Conv_94/WithoutBiases/fq_weights_1": {"low_level": [-0.31979790329933167, -0.34418660615171703, -0.8054596863009713, -0.2891652368484659, -0.3288065493106842, -0.36319002509117126, -0.31748124957084656, -0.43848938555330846, -0.3804711401462555, -0.5080077052116394, -0.29912668466567993, -0.3141097722091074, -0.22606777602976016, -0.23385421335697174, -0.24379490315914154, -0.2888529598712921, -0.23060624301433563, -0.25822797417640686, -0.44812434911727905, -0.29638007283210754, -0.26335087418556213, -0.2868306636810303, -0.3340527415275574, -0.43472662568092346, -0.2556500732898712, -0.2903026044368744, -0.42748936303227925, -0.29878877635513035, -0.41754563840535974, -0.3969692073085091, -0.6160208582878113, -0.2713161911815405, -0.6089747622609138, -0.28476207275859644, -0.3729891015665374, -0.4367190398792229, -0.6553140878677368, -0.2875326336784796, -0.37020018696784973, -0.31430165576083324, -0.3038593828678131, -0.3293788731098175, -0.32307639718055725, -0.39321890473365784, -0.38451568114346474, -0.3127403259277344, -0.29996538162231445, -0.39245368824118654, -0.3075873851776123, -0.20872254776103155, -0.4219163714385614, -0.4135300772530692, -0.4433382781776222, -0.3823577842929146, -0.3240025043487549, -0.3520329377201737, -0.38914141058921814, -0.618711531162262, -0.3113058805465698, -0.3603716982262475, -0.799187943486884, -0.193203866481781, -0.21071502566337585, -0.2695515415722266], "high_level": [0.33785101074364876, 0.33618226647377014, 0.28127163648605347, 0.3576517403125763, 0.23016458451747893, 0.3492211779722801, 0.33018049955368045, 0.3380022346973419, 0.4213482047900681, 0.3067216333353294, 0.36997247840228836, 0.31165578961372375, 0.4144575893878937, 0.3340774476528168, 0.24189025547821075, 0.3198867489483731, 0.3138807196584013, 0.2331760065324271, 0.4587939764772142, 0.20746605098247528, 0.3309364967641577, 0.32268449664115906, 0.33144295448437333, 0.6110779927024301, 0.44532593411784016, 0.414718006338392, 0.5122501850128174, 0.363742858171463, 0.4342474639415741, 0.4260157346725464, 0.4312146008014679, 0.45695358514785767, 0.3437158167362213, 0.2612103223800659, 0.4330466687679291, 0.2864196300506592, 0.3513430953025818, 0.30857160687446594, 0.29931078946336787, 0.6069273352622986, 0.3365054322668344, 0.38849815802696425, 0.2570960062070632, 0.34952791531880695, 0.32089078426361084, 0.2960290108018249, 0.4017884928152102, 0.38332685828208923, 0.44659322270980245, 0.25409701466560364, 0.39314934611320496, 0.36183881759643555, 0.3417399227619171, 0.4103351831436157, 0.23424505381970795, 0.3229174315929413, 0.4517997733112109, 0.3798418893844267, 0.37303032237907935, 0.4387133717536926, 0.5241427421569824, 0.43042886709865136, 0.27336003329302816, 0.29385536909103394]}, "Conv_51/WithoutBiases/fq_weights_1": {"low_level": [-1.0145118236541748, -1.867203712463379, -0.29519325494766235, -5.043152809143066, -0.8565435409545898, -0.8052588105201721, -0.03920716792345047, -0.7643404603004456, -0.5047094821929932, -1.0841148050525522, -0.3703395426273346, -0.28579899446288154, -0.7570954117664072, -1.4097791524758017, -0.8343583345413208, -1.9105762761572134, -1.4057011604309082, -1.3230713027679992, -0.7019860148429871, -0.8131160736083984, -2.3829453509786855, -1.833927570505345, -1.1726409196853638, -1.388851523399353, -2.2111878395080566, -0.9924662858247758, -0.594094455242157, -2.566565678965661, -1.0010201930999756, -0.9566698873165956, -0.6835519671440125, -1.2385040521621704, -0.9446681629527698, -0.5779176950454712, -1.263393759727478, -0.945808470249176, -2.58447527885437, -1.3647854328155518, -0.5576981902122498, -1.700036652129272, -1.2869093378162917, -1.2041435241699219, -0.7293062210083008, -2.2792410476883846, -0.18472166802432088, -0.7092599272727966, -1.185768961906433, -2.038809299468994, -1.0662657022476196, -0.7987685203552246, -0.9735992276990736, -1.4847313165664673, -0.7151907086372375, -0.738604724407196, -2.0113977399365655, -0.39184439182281494, -2.108797550201416, -1.590549111366272, -1.050877571105957, -0.8114826008231341, -1.555737853050232, -4.905075550079346, -4.783339023590088, -1.2483965158462524, -0.5435613393783569, -0.9272124171257019, -0.9107731621840904, -0.7326913475990295, -0.7248967289924622, -0.9891925305128098, -2.3419079780578613, -1.1915020942687988, -1.0135707577993702, -2.0672217905521393, -1.6974823474884033, -1.6493791341781616, -2.086282730102539, -0.7522774985991418, -0.9819631027660782, -0.9656809332841886, -1.3643678426742554, -1.1455367356538773, -1.1509815936056982, -2.3202531337738037, -1.4895886946947148, -0.3518882393836975, -0.7374315957228343, -1.7132592298945442, -1.340023159980774, -1.0702601489641808, -0.9009792804718018, -3.4722015857696533, -0.06341084837913513, -0.6757907867431641, -0.8762132834239178, -0.1850950327075896, -0.5094907283782959, -1.1543257236480713, -1.2113127708435059, -1.8987246198313579, -0.34551327841953167, -1.0600229501724243, -0.8653514052236546, -0.31216803193092346, -1.7365267276763916, -0.8243578005404699, -0.8926886916160583, -0.6622389487244866, -1.1947524547576904, -1.2426567265861914, -0.4320789575576782, -0.6540984511375427, -1.8155951499938965, -1.4359880660442594, -0.7885586329868861, -1.6203123331069946, -1.429396613699491, -2.1584841864449635, -0.91328984185269, -0.6389533637081766, -2.0553338527679443, -1.5628907680511475, -0.18830588459968567, -2.280562900006771, -1.8198001384735107, -1.6798021793365479, -0.6294036507606506, -1.1613181829452515, -0.9373765587806702, -1.9107308266269172, -1.0018776655197144, -1.8081272840499878, -0.19926051298777261, -0.9977145791053772, -0.5462909936904907, -1.1230388126875226, -1.6730986833572388, -0.7881558150440068, -1.2691292278468609, -0.4696886793611013, -1.602709174156189, -0.11123169488028475, -1.083473801612854, -0.7998814582824707, -0.8488960862159729, -0.9244981839468606, -1.5390026569366455, -0.6657159328460693, -1.256307403476252, -1.7400356722327899, -0.837873637676239, -1.6595970392227173, -0.7911496460437775, -1.4545881964943626, -1.0855464935302734, -0.11007709056138992, -0.772828996181488, -1.2356241941452026, -1.1670793472452365, -2.673815505845206, -0.32168380238793115, -1.6369960308074951, -1.1479964038810215, -0.4667903482913971, -0.8071055524051189, -1.0529659986495972, -0.8932856423514229, -0.7424562102869937, -0.4042848221541661, -2.1812408566474915, -3.7582059502601624, -2.8767123222351074, -0.5445703864097595, -0.05604267120361328, -1.3332990250497494, -1.636604681611061, -1.082422137260437, -0.08705032616853714, -1.5003951787948608, -0.329969197511673, -0.5930069080297498, -0.5011266151570385, -0.6554427146911621, -0.4334426522254944, -0.6167008876800537, -0.7322181342421352, -0.7073608636856079, -1.2974262237548828, -1.1290943622589111, -1.1450910012524826, -0.011806371183734636, -1.1759690046310425], "high_level": [1.4729931285748115, 2.9422603953968394, 1.6349164889408991, 3.4173996009324727, 0.0, 0.10736784140268961, 0.03485081593195597, 0.6480277815590734, 1.3605212128680686, 1.7658777236938477, 0.9983065931693367, 1.0638073682785034, 1.568920612335205, 1.5368903875350952, 1.760292583849372, 2.25350022315979, 3.504624810937333, 2.5108284950256348, 0.18418444943900156, 1.1429650468646355, 1.9574193954467773, 2.2682788372039795, 0.7817606131235758, 2.4192897504375828, 2.0283076422555104, 1.9164866209030151, 0.0, 2.4294209480285645, 1.8670713713999543, 0.5873226523399353, 0.0, 2.4338044745977534, 1.7318916320800781, 0.0, 1.2934745635305132, 1.7640922029366652, 0.8480309508740902, 1.2918579669399117, 0.1463267528774715, 1.4187356233596802, 3.031010150909424, 0.9735628493288729, 2.222647530691964, 2.524118185043335, 1.2426730394363403, 0.0, 4.4136955804295015, 2.3670921527733237, 1.2776804535553372, 1.2380912065505982, 0.7504827380180359, 1.162866485702408, 0.5691306343380834, 1.1832749156319364, 2.651387929916382, 1.301720352496131, 0.04217595100402832, 2.2357718640903257, 0.9051354262080505, 1.5399726629257202, 2.295846152074129, 0.46314018069418716, 0.735898311321552, 1.4959234112295612, 0.0, 2.7671495573595166, 1.2005646228790283, 0.19224079912251765, 0.0, 1.666008472442627, 1.3673251548909253, 1.908834987757157, 1.0377033948898315, 1.3336914777755737, 1.4620650876177488, 4.034292206570909, 3.63416991695281, 0.0029617224354296923, 1.1766626834869385, 1.8325990438461304, 3.5358265218600424, 1.0182548761367798, 1.671136736869812, 1.732243777954415, 1.2629121541976929, 0.02994793526669766, 1.7698358297348022, 1.5715610980987549, 1.2291941768244692, 1.5539354085922241, 1.1503574741738183, 2.2772231179398377, 1.2840696796774864, 1.4782923460006714, 1.6342854499816895, 4.105744361877441, 1.9418325874040712, 0.9942367546749811, 3.331110119819641, 3.6665027141571045, 1.4525660276412964, 1.7853018108167145, 2.038130283355713, 3.306143247268417, 2.691616427898407, 0.8051866888999939, 1.2150484969218573, 1.475367784500122, 1.242542552947998, 3.6323812007904053, 2.0720150010152296, 0.0, 1.2303046082195483, 1.7760905027389526, 1.7249720096588135, 1.5098364922133358, 3.633049726486206, 2.6277198791503906, 2.669616460800171, 1.9068764448165894, 1.635582572977308, 2.161755454874484, 1.18363698891231, 2.298520088195801, 1.0097671500066432, 2.361231365293827, 0.04213580925594314, 2.242545456721865, 0.134511434443863, 3.0610687732696533, 0.9190156029579334, 1.1665337316451534, 2.2203314304351807, 1.798079021684416, 0.9678851301255434, 1.6572999954223633, 2.35180852660593, 1.2017425298690796, 3.8678224086761475, 1.5953218936920166, 2.5676055136992004, 0.9392898678779602, 2.0208612479520647, 0.0, 1.1554418951272964, 1.3643079996109009, 0.9292091513579747, 0.1830718815326691, 2.6505022048950195, 1.2378777265548706, 1.1589280222063867, 2.449114077299544, 0.1834549903869629, 0.9231040477752686, 1.0437947053175707, 2.049127378142797, 0.1656062134674617, 1.4121419361659457, 3.274789810180664, 3.255079746246338, 1.117427945137024, 1.0561264714887064, 1.5878828763961792, 1.9138404279947279, 0.08385512232780457, 1.7439749352633953, 1.9540623426437378, 1.511428713798523, 1.3731743097305298, 1.4541605710983276, 2.4246490001678467, 1.4383561611175537, 0.0, 2.802133560180664, 2.2082765102386475, 0.9881386756896973, 1.6236332058906555, 4.352516308426857, 2.5269813537597656, 0.0, 2.557342290878296, 0.8583126068115234, 1.358266830444336, 1.5761550990017976, 0.0, 1.0127876996994019, 0.8476134487267198, 1.4596045017242432, 2.180320147810311, 1.248336911201477, 1.4935059547424316, 1.0618824594056429]}, "Conv_45/WithoutBiases/fq_weights_1": {"low_level": [-0.44868681757223033, -0.3922599421607123, -0.521239616654136, -0.4334096281956404, -0.5443509221076965, -0.43201136589050293, -0.6953681111335754, -0.45564711353053217, -0.3248286247253418, -0.5704372525215149, -0.7162735238671303, -0.37010276317596436, -0.2805451701084773, -0.3335007826487223, -0.33748728036880493, -0.4607798170497399, -0.7744830846786499, -0.38640525937080383, -0.4257519543170929, -0.8278950452804565, -0.5627346038818359, -0.2872207586782692, -0.3758069574832916, -0.5487016873643887, -0.5197035429023561, -0.4389401233102393, -0.3670765459537506, -0.5482154907064235, -0.4254456854214633, -0.6431940793991089, -0.41188886761665344, -0.5479646921157837], "high_level": [0.4382522404193878, 0.4412924349308014, 0.5593791007995605, 0.36745598912239075, 0.6028349054746391, 0.27416105912281913, 0.456053111847345, 0.537429928779602, 0.4350915523844028, 0.42587438715647347, 0.6366875767707825, 0.3503262796474777, 0.3639504909515381, 0.5002511739730835, 0.4821246862411499, 0.48679158091545105, 0.6065881502378238, 0.4933567150895084, 0.3281837981194258, 0.5889723140921368, 0.5671655850147638, 0.33346816897392273, 0.42949366569519043, 0.7966726422309875, 0.5076174139976501, 0.43551090359687805, 0.5689686462283134, 0.678056001663208, 0.49394965171813965, 0.7955295192567926, 0.327770718596351, 0.5973713446836002]}, "Conv_96/WithoutBiases/fq_weights_1": {"low_level": [-0.05390793173795654, -0.047689559847809544, -0.08228952437639236, -0.0439983506816147, -0.05794522538781166, -0.0566955961340623, -0.040776968002319336, -0.10247217959934665, -0.07752655009064105, -0.024432941167442886, 